-0.434627 -0.111528 3.411240 -0.133909 -0.116405 0.219194 -0.482424 -0.820463 4.960877 -0.282686 -0.001650 -0.005260 -0.689928 0.321337 0.338179 -0.030934 0.365799
-0.434021 -0.018398 -0.085892 2.135180 -0.609619 -0.591486 -0.410048 -0.552039 0.874347 -0.113592 -0.003802 -0.012712 0.134642 -0.246337 0.060945 -0.020515 -0.008774
-0.866396 0.045230 -2.356778 -0.690228 0.294273 0.140476 -0.337303 -1.197360 4.189894 -0.348703 -0.010640 -0.015886 0.492205 0.089668 -0.349823 -0.024812 0.265523
0.490643 0.116508 2.257647 -0.112923 -0.072808 0.176854 1.200647 0.699866 0.315699 -6.391664 0.308308 -0.053765 0.285733 0.020163 -0.027164 -0.265298 0.221621
0.102437 -0.001393 0.018259 1.629231 -0.096449 -0.141840 0.880314 0.735549 0.274104 0.897998 -5.366816 -0.090764 0.036094 0.298323 -0.098067 0.919047 0.188997
0.295108 -0.114794 -1.066607 -0.722934 0.044398 0.128686 0.465235 -1.625749 -1.447106 1.697845 0.748453 -0.418563 -0.001506 -0.103586 -0.045008 -0.429795 -0.260762
0.412625 0.353893 2.005139 -0.134835 -0.256259 -0.403479 -1.506825 0.658939 0.465362 1.161461 0.039757 -0.059907 -3.281207 0.871323 0.803350 0.427787 -0.038252
0.408041 0.653909 -0.085122 1.640529 -0.368747 -0.613830 -2.033098 1.079333 0.980608 0.881154 0.500868 0.012048 0.472326 -3.688729 0.681976 0.183226 0.002684
0.117416 1.607892 -0.273272 -0.335175 0.140244 -0.296812 -2.553290 3.621125 3.069036 0.272483 -0.441527 -0.452051 1.073100 0.389705 -0.421415 -0.326783 0.413687
0.580039 -0.343289 3.452987 -0.270880 -0.274108 -0.304086 -2.200976 1.122154 1.008478 1.204717 -0.018059 0.052094 0.931989 -0.061168 0.023716 0.974743 -0.007034
0.466455 -0.493869 -0.299696 2.873256 -0.530179 -0.283149 -3.030379 2.021784 1.751478 0.906234 -0.305846 -0.167141 -0.410450 1.152771 0.007940 0.710426 0.074288
0.282347 -1.143510 -0.603324 -0.772578 0.226871 0.610877 -2.557671 6.135106 5.438255 0.606233 -0.746753 -0.678388 -0.224510 -0.085175 0.159134 -0.355335 0.901569
