-6.74 0.03 2.74 -0.14 -0.12 0.18 -0.23 -0.03 0.09 -4.82 1.07 0.84 0.05 -0.06 -0.06 0.25 -0.02
-4.42 0.00 0.21 1.74 -0.57 -0.36 -0.27 0.32 0.17 0.45 -3.69 0.43 0.04 0.22 -0.05 -0.25 0.02
-9.04 -0.02 -2.15 -0.51 0.23 -0.09 -1.42 -1.99 -1.80 1.67 1.61 -0.60 -0.04 -0.07 -0.00 -0.71 -0.52
1.07 -0.02 2.14 -0.05 -0.01 0.11 1.50 1.14 0.91 -6.39 0.27 0.03 0.26 0.12 0.04 -3.14 0.35
0.72 -0.04 -0.05 1.58 -0.01 -0.21 1.42 1.48 1.24 0.80 -5.22 -0.03 -0.05 0.31 -0.05 -0.97 0.41
1.27 -0.03 -0.71 -0.61 0.12 0.08 1.42 0.34 0.75 1.16 0.42 -0.37 -0.13 -0.05 0.05 -3.90 0.25
0.37 0.41 2.03 -0.18 -0.30 -0.54 -1.77 0.64 0.70 0.99 0.13 0.07 -3.26 0.84 0.76 -0.01 -0.04
0.46 0.64 -0.10 1.57 -0.42 -0.79 -2.05 1.27 1.28 0.74 0.66 0.16 0.40 -3.66 0.62 -0.01 0.05
-0.08 1.61 -0.41 -0.46 0.00 -0.41 -2.58 4.28 4.14 -0.24 -0.07 -0.02 0.96 0.40 -0.48 -0.06 0.58
0.53 -0.25 3.50 -0.38 -0.29 -0.49 -2.61 1.10 1.25 0.66 0.16 0.22 0.95 -0.04 0.04 -0.06 -0.03
0.50 -0.36 -0.30 2.83 -0.48 -0.51 -2.96 2.28 2.50 0.71 -0.05 0.00 -0.35 1.11 0.01 -0.01 0.18
-0.28 -1.35 -0.76 -1.04 0.27 0.61 -3.24 6.35 6.45 -0.17 -0.05 -0.04 -0.60 -0.29 0.29 -0.17 0.96
