-6.557180 0.066369 2.793189 -0.150276 -0.235646 0.240895 0.068690 0.253519 0.374317 -4.715927 1.143516 0.829743 0.083326 -0.015336 -0.043455 -0.032166 0.069653
-4.338789 -0.017863 0.216729 1.715739 -0.563211 -0.369497 -0.294863 0.136430 -0.089873 0.418767 -3.663627 0.416587 0.005804 0.176965 -0.055813 -0.040629 -0.024831
-9.038887 0.075301 -2.190826 -0.423027 0.163272 0.019398 -1.230670 -1.818201 -1.615316 1.707490 1.625807 -0.588926 -0.033269 -0.029719 -0.060436 -0.048387 -0.466419
1.035195 0.037409 2.118584 -0.047590 -0.080120 0.157798 1.657157 1.309769 1.059081 -6.407745 0.303353 -0.083264 0.168444 0.075772 -0.044444 -0.296712 0.402601
0.574699 -0.067408 -0.048519 1.599040 -0.065695 -0.160326 1.589796 1.608439 1.313256 0.858290 -5.259123 -0.059421 0.020781 0.281018 0.006837 0.844631 0.451149
1.303563 -0.070678 -0.648274 -0.580056 0.077842 0.058668 1.925642 0.840794 1.211515 1.351056 0.428629 -0.362298 -0.058544 -0.129526 0.045567 -0.311072 0.397795
0.454127 0.376488 2.018735 -0.143978 -0.251718 -0.442189 -1.767409 0.565342 0.508913 1.109902 0.118762 0.015081 -3.282069 0.812266 0.760906 0.402967 -0.069315
0.489300 0.648548 -0.073909 1.581328 -0.445926 -0.738500 -2.044861 1.246943 1.369954 0.785496 0.637321 0.144907 0.405005 -3.675734 0.680376 0.194958 0.057204
0.020448 1.655485 -0.271214 -0.396493 0.097364 -0.431827 -2.585268 3.913155 3.718099 0.197094 -0.257637 -0.103774 0.946142 0.305358 -0.662063 -0.353508 0.504599
0.566023 -0.238396 3.437102 -0.275646 -0.349551 -0.475798 -1.872477 1.919263 1.979291 0.974414 0.079516 0.142009 1.046289 -0.056921 0.034122 0.983110 0.202608
0.525952 -0.425774 -0.311333 2.969437 -0.426338 -0.480265 -3.184972 1.976028 2.114307 0.768728 -0.100178 0.069681 -0.310708 1.139725 -0.000973 0.698884 0.090536
0.147973 -1.035651 -0.701519 -0.849828 0.309121 0.387552 -2.270732 6.480403 6.223257 0.512896 -0.471369 -0.505609 -0.062471 -0.231710 0.196541 -0.344952 1.043293
