-1.791580 4.234868 -0.218529 -0.552314 -0.605936 -0.459417 -1.124342 0.845105 1.038952 -0.190548 -0.202391 -0.143230 -0.135285 -0.065950 0.301549 -0.339421 0.085328 -0.845753 -1.026874 -0.041729 4.660707 -0.495390 0.065243 0.886076 0.752655 0.604104 0.349972 0.261107 -4.663296 -0.172255 -0.279412 -0.392835 -0.413018 0.434983 -0.118455 0.116163
-1.389350 -1.418562 4.524064 -0.390485 -0.434741 -0.449094 -0.807947 0.582500 -0.194541 0.880819 -0.240392 -0.151260 -0.302297 -0.260646 -0.268318 0.087134 0.775474 0.143763 -0.807433 -0.109847 3.525780 0.700241 0.628969 0.024242 1.442643 0.392978 0.196109 0.283454 0.886027 -4.452819 -0.279427 -0.338093 -0.407159 -0.100478 -0.164431 0.031759
-1.141317 -0.738815 -1.584510 4.408499 -0.656950 -0.371990 -0.921472 0.800795 -0.119630 -0.144372 0.984196 -0.255776 -0.319721 -0.227457 -0.082759 0.217771 0.657441 0.067691 -0.435920 -0.088535 3.612604 0.568999 0.818032 0.224527 -0.038272 2.065716 0.374116 0.105123 0.473805 0.124655 -4.767004 -0.284773 -0.289708 0.209208 -0.044860 0.096514
-0.892976 -0.854564 -1.149710 -1.176529 4.343816 -0.682642 -0.990295 0.898899 -0.111759 -0.178714 -0.221739 0.972893 -0.392521 -0.182322 -0.114162 -0.100702 0.461101 -0.050143 -0.221860 0.058467 3.536789 0.528632 0.813091 0.251171 0.013912 0.081825 2.107689 0.288115 0.163432 -0.126211 -0.173234 -5.092889 -0.070544 0.559624 0.167792 0.162631
-0.932487 -0.799668 -0.942906 -0.725530 -0.658169 4.253213 -1.657481 0.554899 -0.211167 -0.195593 -0.198327 -0.367968 0.984372 -0.202321 -0.191004 -0.326537 0.175084 0.008913 -0.257561 0.083198 3.514295 0.552693 0.745056 0.116584 0.010295 0.060428 -0.084725 2.311782 0.111550 -0.013500 -0.052124 -0.058318 -5.464978 0.088021 -0.101984 0.054094
-3.362933 -1.542313 -0.680358 -0.632453 -0.579840 -0.519145 4.427683 1.479193 -0.204678 -0.011415 -0.133850 -0.165428 -0.060895 0.199270 -0.376996 0.137003 -0.807362 -0.465662 0.271649 -0.039022 3.876782 0.620588 0.568617 -0.777745 -0.288130 -0.330233 -0.172246 -0.119869 2.032431 0.634388 0.733084 0.788495 0.699704 -0.066834 0.503816 0.191618
-2.751686 6.624919 -0.101089 -0.830046 -0.703391 -0.699746 -1.331266 1.034390 1.772778 -0.263700 -0.327424 -0.211348 -0.169478 -0.242659 0.558170 -0.477677 0.088446 -0.507692 -0.365776 -0.038511 -4.598824 -0.441985 -0.567665 -1.414896 0.699776 0.187509 0.239678 0.188905 0.919784 0.204688 0.256180 0.152730 0.128471 1.403171 1.495344 0.393291
-2.059841 -1.968308 6.231810 -0.664385 -0.694065 -0.495155 -1.226683 0.438341 -0.362739 1.247502 -0.286706 -0.203716 -0.197161 -0.338050 -0.140869 0.182206 1.488397 0.349563 -0.741550 -0.060921 -2.488318 0.303752 0.337906 0.895891 -0.555293 -0.047067 -0.020626 -0.115051 0.103776 0.656470 0.239448 0.204370 0.018522 0.680894 0.526475 0.164571
-1.853733 -1.068685 -2.108034 6.038273 -0.737843 -0.645947 -1.201734 1.132147 -0.281013 -0.260716 1.256440 -0.329537 -0.175646 -0.299949 -0.090421 0.129617 1.133401 0.265948 -0.245404 0.037271 -2.516634 0.229107 0.414798 0.570823 0.015812 -0.026173 0.000257 0.052093 -0.164646 0.134125 0.684190 0.134078 0.114592 1.242441 1.371988 0.374658
-1.773238 -1.096331 -1.717171 -1.796710 5.757177 -0.977083 -1.699093 0.817432 -0.284367 -0.083332 -0.374553 1.446418 -0.319224 -0.374791 0.010151 -0.016912 0.858779 0.215748 -0.124608 -0.148202 -1.789282 0.426412 0.386196 0.517091 0.163404 -0.033427 0.126536 0.100893 -0.153446 0.043805 0.134690 0.732838 0.162065 0.825309 1.023531 0.266627
-1.427020 -1.272749 -1.358544 -1.334422 -1.321531 5.865364 -2.322134 0.616664 -0.399189 -0.329175 -0.120294 -0.215725 1.434158 -0.380620 -0.010845 -0.101640 0.512834 0.379650 0.172191 -0.085701 -1.931615 0.252662 0.496030 0.515763 0.126489 0.024652 0.058547 0.221129 -0.282088 -0.162866 -0.010410 -0.009664 0.790652 0.785130 1.033392 0.243519
-4.982105 -2.185431 -0.825361 -0.936313 -0.748072 -0.741858 6.494999 0.450066 -0.271143 0.055059 -0.066621 -0.156012 0.029382 0.446700 0.037366 0.250589 -1.095874 0.048951 0.882002 0.018026 -2.644122 -0.075822 0.254458 0.061213 -0.010756 0.091354 0.001040 0.062462 -0.954479 -0.466506 -0.198751 -0.139585 -0.222745 1.291019 1.024674 0.276576
