-1.593580 -0.616068 -0.332159 -0.310566 -0.356427 -0.335442 -0.905999 2.773900 15.294421 -2.615123 -2.632649 -2.382380 -2.456654 -0.655066 0.406360 1.169613 0.111896 0.370758 -2.433715 0.849893 -0.078975 -0.158461 -2.190363 -2.316812 -1.168836 -0.284427 -3.230745 6.554511 -0.189578 -0.079013 -0.015795 -0.058542 -0.039488 -3.318061 0.976401 -0.173392 -0.055080 -0.141861 -0.774062 -1.856258 0.014358
-1.909735 -0.428802 -0.754192 -0.307337 -0.321282 -0.386745 -1.127251 2.558834 2.348746 23.561813 -7.246768 -5.186512 -5.696258 -1.147521 0.756909 -0.179298 -0.738960 0.322823 -5.222188 -0.886202 -0.189541 -0.191295 -2.449879 -2.455393 -1.403670 -0.394912 -4.209055 5.724935 -0.225067 -0.063418 -0.078975 -0.165848 -0.160493 10.596261 -6.856195 -1.904509 -1.632947 -1.602420 -0.785879 -3.839754 -0.206680
-1.567075 -0.430304 -0.287216 -0.614666 -0.288916 -0.305722 -0.831179 1.567655 -4.135476 -4.254960 23.750104 -4.617999 -4.518530 0.093110 1.055446 1.218261 -0.286129 1.166839 -4.655483 -0.767842 -0.173746 -0.272100 -2.100394 -2.118932 -1.280289 -0.281421 -3.848101 6.322538 -0.224084 -0.047385 -0.063180 -0.094770 -0.126361 4.626744 3.040327 -5.845474 0.755255 0.210992 -1.619988 -0.421451 -0.047378
-0.459702 -0.080470 -0.078558 -0.110087 -0.056364 -0.129387 -0.245002 0.404436 -1.426713 -1.157677 -0.448275 1.214331 0.994229 -0.247612 0.184312 -0.033019 -0.103663 -0.035175 1.228541 -0.312659 -0.015868 -0.052967 -0.731866 -0.747650 -0.434935 -0.049114 -1.117709 2.482159 -0.046735 -0.000003 -0.015799 -0.063188 -0.000035 0.315282 0.109268 0.195639 -0.022896 0.038085 0.134697 0.014306 0.055344
-1.140093 -0.681356 -0.200608 -0.221177 -0.196415 -0.263052 -0.564357 -0.575679 -4.895532 0.823003 1.021167 0.901615 0.834922 4.902077 -0.008300 -0.230451 0.173488 -0.047366 0.739145 0.255831 -0.073719 -0.142235 -1.436944 -1.458074 -0.521669 -0.356842 -1.947235 4.656098 -0.047421 -0.000000 -0.015795 -0.031590 -0.039509 -0.483187 -0.029675 -0.121386 -0.138922 0.228064 0.516465 0.483696 0.042448
-0.959094 -0.270416 -0.477305 -0.178456 -0.159042 -0.171663 -0.545952 -0.180770 0.786840 -4.743909 0.964737 1.070386 1.125189 -0.229383 5.776956 0.146143 -0.229544 0.409672 0.615987 -1.044321 -0.086796 -0.119407 -1.228027 -1.204397 -0.800366 -0.339093 -2.152072 4.068978 -0.111532 -0.023693 -0.056253 -0.063201 -0.098678 1.148819 0.315780 -0.185667 0.180302 0.282703 0.124944 0.009439 -0.004639
-0.903043 -0.150386 -0.182773 -0.390405 -0.201855 -0.134294 -0.510373 -0.314036 0.647255 0.813057 -4.481843 1.005037 0.925339 -0.489399 0.026681 5.317995 -0.227797 -0.011231 0.777119 -0.847948 -0.047945 -0.120096 -1.240802 -1.258796 -0.679175 -0.359161 -1.938989 3.715841 -0.134974 -0.015795 -0.015795 -0.031589 -0.031591 0.284256 -0.040716 0.029314 0.112671 0.027754 0.339157 0.084873 0.010999
-0.385070 -0.019319 -0.077679 -0.037207 -0.079766 -0.076634 -0.268743 0.030704 0.748860 0.672328 0.411329 -0.564696 -0.659413 -1.832872 -0.939122 -0.968034 0.117101 -0.061742 -0.577704 0.398783 -0.008225 -0.057053 -0.668722 -0.707483 -0.264595 -0.316820 -0.944518 1.801635 -0.060294 -0.000596 -0.008028 -0.016578 -0.002030 -0.357803 -0.235515 -0.075683 0.108525 0.041918 0.150552 0.080866 0.026212
1.600959 7.884693 -0.249318 -1.185420 -1.357782 -1.054601 -2.002193 -0.454337 -0.000263 -0.452639 0.272681 -0.058437 -0.017634 0.090920 -0.004683 0.005966 0.129836 -0.147578 -0.198045 0.807061 -1.159888 -0.573171 0.261641 -0.070335 0.058898 -0.171692 -0.470125 -0.913989 -3.377295 0.983578 0.415171 -0.066630 0.121817 0.299426 0.363802 0.270481 0.090346 0.053612 -0.544709 -0.531684 -0.153073
2.982520 -2.691658 9.251407 -1.071011 -0.730476 -0.895034 -1.422120 0.145303 0.183325 0.107261 -0.217106 0.111348 0.075353 -0.022388 0.007388 -0.127952 -0.203417 0.113901 -0.114877 -0.051592 0.073173 2.732525 1.808646 -1.362043 -0.190116 0.018573 0.556399 0.086404 1.325635 -1.912525 0.201707 0.069309 -0.107824 0.072966 0.238770 0.106315 -0.043893 0.141267 0.076556 0.271670 0.049353
3.282450 -1.494957 -3.244540 8.929428 -0.945598 -1.288060 -1.824631 0.355599 -0.000117 0.319275 -0.067045 -0.082402 0.027108 -0.112917 -0.211345 0.074550 0.083579 0.192102 0.158781 0.056860 0.155494 2.120529 1.056760 -0.705652 0.004884 0.023138 0.369555 0.515708 1.205735 0.024712 -1.558680 0.180831 0.153108 0.205150 0.042167 0.082484 -0.004150 0.160615 0.552929 0.401329 0.130986
7.827521 -5.124815 -4.123797 -4.292786 0.906639 0.998026 1.940035 -0.068042 -0.050611 -0.036282 0.094779 -0.051334 0.042620 -0.104481 -0.070924 -0.003949 0.027350 -0.098123 -0.067214 -0.109152 0.124247 -1.437556 -0.458746 1.019983 0.015211 0.091754 -0.067853 0.133639 0.085230 0.203516 0.182400 -0.055280 -0.068190 -0.075098 -0.029058 -0.081992 -0.072455 0.002092 -0.005283 -0.211795 -0.028512
-50.612328 -6.655324 -9.799740 -9.415115 -7.591673 -10.744641 -31.002953 0.395375 72.350564 -11.026663 -15.083341 -14.454074 -11.087525 24.959460 -0.419110 -6.573552 -12.592050 -1.534792 -20.303588 6.187490 2.345947 5.489353 5.404472 12.880160 -0.025356 -15.797980 28.049659 17.031377 15.986546 -10.920523 5.285120 4.065595 -4.058812 -44.073869 -0.106683 -3.529768 -1.475322 -1.526057 -19.872066 -23.183564 -4.266026
-16.637777 -0.703971 -5.071825 -3.142124 -2.666111 -2.857387 -8.180557 -0.236414 -9.494614 27.624388 -6.129842 -3.937774 -3.750036 -1.847146 1.055934 1.013769 -0.170140 -0.308442 -4.548536 -1.857098 5.568301 1.937297 4.196138 6.401547 0.028978 -5.543617 9.615929 7.580582 2.542483 -0.695473 0.049321 -0.420991 -0.322941 -2.822804 -9.985846 0.167163 -0.821154 0.624540 -3.457760 -4.520296 -0.821447
-15.095498 -0.578838 -2.013822 -5.272384 -2.392688 -2.603052 -7.126132 -0.523997 -4.520894 -6.521476 25.724103 -4.971815 -3.815985 -1.229091 -1.642755 1.476314 0.343043 -0.753767 -6.417929 -0.970182 2.047515 1.832880 3.258132 4.135578 0.559860 -5.239768 8.094801 5.506722 1.255715 -1.873912 -0.522225 -2.129061 -0.381717 -1.164675 -1.638290 -8.865212 1.179584 0.703507 -4.657937 -3.664359 -0.884629
-4.508170 -0.489650 -0.823935 -0.762345 -0.806881 -0.758130 -1.738594 0.641129 -0.521886 -1.022103 -0.996509 1.099594 0.847237 0.623412 0.188852 0.248006 -0.005366 -0.058652 1.234796 -0.835310 0.100086 -0.413489 0.675463 0.994254 -0.017205 -4.226539 3.276543 2.557635 -0.437767 -0.968694 -0.581205 -0.740422 -0.634829 0.697780 -0.055285 -0.197084 -0.307719 -0.176870 -0.321915 -0.299776 0.001944
-33.077358 -5.917705 -5.637826 -5.452820 -5.360336 -5.876926 -17.902569 -7.943756 -19.601521 -1.587914 3.846709 4.468722 0.162238 37.383309 4.170540 0.855368 -0.128773 -2.256417 4.768011 -2.148526 2.353846 11.975516 5.170771 8.843818 1.560330 2.561511 19.923552 16.823734 5.866862 -4.897323 0.076456 -2.065496 2.080083 -0.808363 0.467272 -0.389348 2.760164 1.676537 -4.742958 -3.631638 -1.631835
-10.366158 -0.412490 -4.095568 -1.667634 -1.654660 -1.750158 -4.270625 -1.233953 2.403334 -7.455746 0.848009 1.052033 1.543342 -1.480364 8.068275 -0.084386 -0.112088 0.115699 0.375076 -0.345728 1.877024 1.988044 2.586650 2.008090 -0.223102 0.745043 7.010554 6.038275 2.098076 -0.568970 -0.899266 -0.683473 -1.232762 -0.156001 0.210056 -0.001364 0.432794 0.152571 -0.241750 -0.601390 -0.207709
-9.775640 -0.469932 -1.238957 -3.923517 -1.529572 -1.374625 -3.948751 -0.855501 1.074663 2.036220 -7.524074 0.738195 1.323325 -0.380997 -0.718265 8.510255 -0.255586 -0.324006 1.496171 -0.734549 0.487753 1.414675 1.880548 2.399487 -0.084938 0.056827 6.599845 5.856446 1.082031 -0.345862 -0.691048 -0.149834 -0.847549 -0.363270 0.176771 0.093491 -0.057884 -0.104860 -0.007955 -0.313572 -0.117703
-3.864612 -0.441740 -0.588912 -0.618638 -0.817428 -0.737659 -1.225255 0.134025 0.341829 0.825054 0.916215 -0.767158 -0.627394 -0.435035 -1.291986 -1.512416 0.074931 0.114595 -0.554520 0.506656 -0.291897 -0.343413 1.044291 1.214867 0.000064 0.881970 3.239277 2.605029 -0.260866 -0.677722 -0.696202 -0.725153 -0.510572 -0.251152 0.039088 -0.056461 0.029914 0.055584 0.455219 0.539428 0.112867
