-2.024509 -0.903637 -0.388294 -0.278690 -0.390724 -0.380101 -1.195024 2.287915 19.683834 -3.780025 -3.689106 -2.551116 -3.308234 -0.382647 -0.333578 0.454826 -0.127205 0.103386 -4.067437 0.870500 -0.229112 -0.296803 -2.720218 -2.830795 -1.330262 -0.404756 -4.198045 8.298195 -0.173778 -0.094803 -0.015828 -0.063181 -0.033327 -4.158384 1.660040 -0.172498 -0.115034 -0.267944 -0.840378 -1.270671 0.017687
-2.709937 -0.707708 -0.991310 -0.493435 -0.554167 -0.523450 -1.551129 1.774905 2.877047 30.534156 -9.402923 -6.887176 -6.294543 -1.433715 2.433002 0.234018 -0.630088 0.323995 -9.051656 -0.286065 -0.152393 -0.253616 -3.151725 -3.252459 -1.795186 -0.428820 -5.135540 7.035563 -0.291224 -0.063180 -0.055530 -0.118463 -0.063405 13.218858 -8.742589 -2.594104 -1.514052 -0.997150 -3.030888 -2.034449 -0.329043
-0.517127 -0.087859 -0.044528 -0.126644 -0.081244 -0.082367 -0.386687 0.627423 -1.777667 -1.471755 0.857742 0.934359 1.234548 -0.511004 0.146869 -0.127920 -0.091412 0.238400 0.850197 -0.325842 -0.047394 -0.072288 -0.872949 -0.897825 -0.389860 -0.072652 -1.403892 2.748711 -0.056984 -0.007899 -0.000001 -0.023599 -0.007908 0.746312 0.215226 -0.217926 -0.178323 0.059114 0.043498 -0.198679 0.047224
-1.496965 -0.840368 -0.176313 -0.223472 -0.248121 -0.208123 -0.850642 -0.283656 -6.007020 1.250722 1.162607 0.818117 1.270616 5.950177 -0.455474 -0.166355 0.301552 -0.324091 1.221301 0.255961 -0.094146 -0.132416 -1.852667 -1.894084 -0.616919 -0.579419 -2.565967 6.190873 -0.079521 -0.000000 -0.038214 -0.015795 -0.039490 -0.459850 -0.167688 -0.094840 0.182672 0.022563 0.787978 0.339401 0.084372
-1.510980 -0.427279 -0.762896 -0.258159 -0.187590 -0.227268 -0.902994 -0.333622 0.618785 -6.477033 1.419789 1.657158 1.075972 0.006380 7.942501 -0.142085 -0.061626 0.066979 1.371707 -1.694480 -0.079613 -0.156101 -1.844744 -1.940384 -1.151460 -0.476382 -2.785848 6.331032 -0.118465 -0.039488 -0.039488 -0.070545 -0.039488 1.016701 0.278844 0.048900 -0.221837 0.275188 0.090033 0.771028 0.052744
-0.400492 -0.026426 -0.074872 -0.099440 -0.121527 -0.084471 -0.183448 -0.273144 0.856844 0.816218 -0.519867 -0.432540 -0.531119 -2.072177 -1.071479 -0.122630 -0.033626 -0.023604 -0.462680 0.176664 -0.023854 -0.027578 -0.822019 -0.863844 -0.275676 -0.326389 -1.079457 1.867342 -0.043867 -0.000277 -0.007972 -0.001646 -0.024559 -0.533271 -0.257963 0.029625 0.032078 0.185308 0.207148 0.249645 0.018365
1.817399 8.604640 -0.172726 -1.417228 -1.328827 -1.198877 -2.211758 -0.309264 -0.000859 -0.221773 0.248698 -0.092964 -0.064400 0.110595 0.052029 -0.120730 0.004478 -0.024362 -0.177966 0.806300 -1.222926 -0.414967 0.277833 -0.033410 -0.017015 -0.112421 -0.337703 -0.855792 -3.854130 1.014939 0.490050 -0.095692 0.112829 0.324691 0.347750 0.374355 0.043191 0.101389 -0.495835 -0.125472 -0.093057
3.284930 -2.901289 10.285631 -1.020534 -0.879834 -0.945012 -1.662211 0.184332 0.157569 0.103914 -0.197295 0.107665 -0.031949 -0.122370 0.197306 0.125543 -0.228032 0.185776 0.044427 0.301750 0.366647 3.141337 1.909455 -1.649049 -0.148105 -0.009978 0.547218 0.573209 1.453903 -2.110915 0.007627 0.142104 0.145720 0.085359 0.038785 0.027620 0.166140 0.236055 -0.028754 -0.004593 0.015099
8.960205 -5.913502 -5.254006 0.740711 0.679465 0.765246 1.500638 -0.268706 -0.143943 -0.038815 0.032665 -0.113963 0.032561 -0.158545 -0.126309 -0.035828 0.010668 0.031023 -0.037211 -0.027305 0.321210 -1.148774 -0.226719 1.157226 -0.001244 0.086178 0.031684 0.182057 0.362422 0.162439 -0.221958 -0.098427 -0.132409 -0.175023 -0.068069 -0.146387 -0.016246 -0.020550 -0.301536 -0.399279 -0.096952
-63.230935 -7.541619 -11.844235 -11.755901 -11.037039 -13.129508 -39.409273 6.691392 92.129910 -12.195212 -18.103458 -15.339781 -14.005279 37.067856 2.528887 -6.533149 -18.566265 -7.766855 -25.794787 3.667796 3.804644 9.665103 7.843118 14.063681 1.624870 -18.625645 42.164029 28.816103 15.449409 -15.319920 8.190002 3.335004 -1.271894 -53.014780 -3.496348 2.281070 -3.435158 -1.796288 -20.421643 -26.011965 -3.974222
-21.318959 -0.848747 -6.480780 -3.979742 -3.375010 -4.093748 -10.578210 -0.590060 -12.076162 34.506985 -6.858839 -5.293222 -5.305917 -1.630245 3.586139 0.774595 -0.326210 -0.415436 -5.562904 -1.059448 5.468071 2.341666 3.344350 6.557836 -0.769620 -7.150716 10.540188 8.521442 3.214567 -1.663124 0.558641 0.100071 -0.059588 -4.970111 -12.508558 -0.536843 -0.845407 0.716988 -6.539600 -6.682197 -1.381186
-4.845189 -0.560385 -0.671427 -0.882693 -0.800502 -0.935429 -1.972149 0.980854 -0.833889 -1.568287 0.481513 1.050511 0.811693 0.436665 0.257122 0.138388 0.078917 0.150850 1.039312 -0.253421 -0.037917 -0.313756 0.741556 1.417443 -0.089996 -5.093884 4.065273 3.040159 -0.424032 -0.961146 -0.436889 -0.585854 -0.890725 0.246834 0.103883 -0.222058 -0.275134 -0.013156 -0.108768 -0.077978 0.079411
-43.173462 -8.069193 -7.696483 -7.797369 -6.886228 -7.226199 -23.754571 -14.015577 -25.499709 0.153950 2.414619 4.075079 -0.348943 46.450039 4.160634 -2.913076 -0.540051 -0.041267 5.189427 -2.887929 2.884524 15.274893 6.503285 13.903985 0.870617 8.619500 21.949854 15.398959 5.605190 -2.008592 -1.218938 -2.623030 3.505986 -1.143654 -0.265423 0.754541 3.287690 3.349055 -9.986362 -9.544018 -3.354596
-13.183992 -0.560956 -4.924383 -2.287524 -2.064772 -2.179140 -5.401834 -0.842241 2.566776 -9.662693 1.422898 1.587988 1.533469 -2.045184 10.716469 -0.046623 0.296925 -0.314558 1.709322 -0.771016 2.043132 3.080667 3.232577 2.680304 -0.131991 0.597918 9.669765 8.647800 2.295089 -0.995669 -0.698607 -0.634815 -1.012426 -0.146574 0.579113 -0.256276 0.032883 0.222282 -0.387141 0.297103 -0.093228
-4.443411 -0.484545 -0.703088 -0.832085 -0.878446 -0.821764 -1.452311 -0.068260 0.670947 1.391940 -0.346051 -0.676080 -0.517615 -0.561509 -1.456097 -0.112618 0.047289 0.062297 -0.591400 0.674770 0.024870 -0.204622 1.119528 1.129773 -0.164824 1.399484 3.741653 2.817204 -0.166721 -0.408962 -0.636470 -0.630608 -0.378609 -0.457166 -0.065048 -0.127155 0.129011 0.064762 0.655123 0.639240 0.122610
