-0.501359 -0.108811 3.380099 -0.071519 -0.223279 0.301438 -0.510021 -0.870582 4.619474 -0.297083 -0.001126 -0.002880 -0.683572 0.280544 0.327268 -0.021895 0.323887
-0.270159 -0.054448 -0.099102 2.092226 -0.603710 -0.687607 -0.283275 -0.439484 1.206450 -0.096959 -0.007328 -0.014896 0.274102 -0.234706 0.087872 -0.010208 0.048369
-0.835580 0.027982 -2.374410 -0.670739 0.339551 -0.001235 -0.362129 -1.169212 4.274174 -0.333060 -0.005310 -0.015719 0.541538 -0.051085 -0.352652 -0.021044 0.274283
0.513172 -0.019934 2.365380 -0.082531 -0.050891 0.095575 1.189061 0.710337 0.217418 -6.391730 0.297374 -0.046497 0.273780 0.034842 0.051280 -0.259956 0.211682
0.264786 0.038040 0.019333 1.656356 -0.059649 -0.174883 1.478793 1.305900 0.868893 0.861332 -5.363880 0.048484 0.014402 0.319735 -0.097856 0.867736 0.365359
0.307405 -0.011898 -1.043496 -0.819690 0.185278 0.189918 -0.199710 -1.891560 -1.737445 1.726629 0.667175 -0.398134 0.058820 -0.163072 0.075678 -0.285999 -0.382871
0.424703 0.428377 2.032736 -0.134518 -0.262771 -0.425889 -1.384567 0.949859 0.700429 1.164782 0.045415 -0.030143 -3.278976 0.917858 0.846165 0.395167 0.026572
0.489726 0.699743 -0.106236 1.600434 -0.353414 -0.608129 -1.827252 1.389275 1.272907 0.912421 0.513622 0.026737 0.488590 -3.679939 0.676044 0.197576 0.083493
0.200424 1.617650 -0.296769 -0.368744 0.060330 -0.259886 -2.529732 3.726403 3.210137 0.257183 -0.543984 -0.408304 1.060106 0.470969 -0.516234 -0.382618 0.440681
0.521946 -0.272765 3.489922 -0.297110 -0.359547 -0.327531 -2.169625 1.200814 1.092506 1.201941 -0.032000 0.060540 0.917485 -0.076699 0.027310 0.915044 0.012370
0.391348 -0.352451 -0.352249 2.878624 -0.469490 -0.315189 -2.560719 2.759646 2.568576 0.959177 -0.239922 -0.119848 -0.409619 1.136350 0.061684 0.688909 0.276750
0.212564 -1.023742 -0.693922 -0.836016 0.128982 0.594398 -2.962986 5.573995 4.825282 0.557359 -0.631305 -0.678106 -0.324374 -0.104851 0.132491 -0.355757 0.743629
