-0.496871 -0.220241 -0.095089 -0.077294 -0.101750 -0.076160 -0.285893 1.412043 6.730269 -1.060287 -1.217360 -1.027925 -1.022276 -0.347759 0.118034 0.097510 -0.241828 0.003256 -0.990378 0.513445 -0.055255 -0.052140 -0.796580 -0.812619 -0.292084 -0.073228 -1.145011 3.604639 -0.054576 -0.006776 -0.020327 -0.006781 -0.022030 -1.621549 0.178649 -0.312099 -0.255322 -0.085692 0.243820 -0.128076 0.152779
-0.555758 -0.163576 -0.172267 -0.083134 -0.111555 -0.079996 -0.286269 1.104115 1.362371 8.924088 -2.562327 -2.220890 -2.148178 -0.623484 0.237472 0.018983 -0.194130 0.137526 -2.250949 -0.196320 -0.055766 -0.063505 -0.826978 -0.846634 -0.484668 -0.037404 -1.398275 3.478739 -0.071168 -0.020328 -0.040647 -0.034155 -0.054251 4.648083 -2.346991 -0.345491 -0.731214 -0.485594 0.117180 -0.094478 0.112682
-0.492081 -0.091607 -0.125923 -0.174207 -0.099965 -0.092933 -0.290975 1.264346 -1.662396 -1.285667 8.932452 -1.758771 -1.484043 -0.171981 0.142493 0.093406 0.050938 0.261882 -1.477229 -0.237666 -0.047729 -0.047387 -0.669694 -0.683259 -0.448184 -0.102389 -1.078954 3.829921 -0.054301 -0.023715 -0.000001 -0.006778 -0.040753 1.620130 1.258723 -1.983075 0.156391 -0.037181 0.437034 0.098934 0.180031
-0.475234 -0.068767 -0.065756 -0.082125 -0.167295 -0.079657 -0.258744 0.853180 -1.630837 -1.505899 -1.452191 8.553151 -1.752618 0.019629 0.065452 0.205546 -0.139368 -0.308514 -1.358426 -0.299571 -0.007294 -0.043830 -0.683173 -0.719328 -0.328125 -0.055016 -1.132826 3.097517 -0.068014 -0.013553 -0.013703 -0.033883 -0.033927 0.909582 0.340833 0.365565 -1.949943 0.215171 0.144228 0.196558 0.119397
-0.520451 -0.087807 -0.068824 -0.125232 -0.075129 -0.193744 -0.281880 0.495164 -2.319029 -1.758716 -1.380323 -1.257916 8.611928 -0.366649 0.023554 -0.077211 -0.065781 0.394766 -1.400779 -0.102730 -0.033881 -0.068822 -0.601008 -0.683207 -0.372689 -0.105592 -1.152104 3.115994 -0.063904 -0.020327 -0.027104 -0.028734 -0.027130 0.196157 0.279597 0.238603 0.517655 -2.151781 0.519621 0.046164 0.106095
-0.230012 -0.044815 -0.039892 -0.037105 -0.037192 -0.038016 -0.134204 0.182118 -0.963528 -0.600426 -0.039515 -0.018848 0.126297 -0.155334 0.152949 0.201783 0.031054 0.022020 1.678138 -0.229932 -0.021204 -0.043827 -0.488806 -0.491986 -0.257123 -0.016334 -0.678420 1.703057 -0.031886 -0.003515 -0.000305 -0.010824 -0.018252 0.161456 0.090530 0.146291 0.257695 0.199926 0.295009 0.202234 0.067936
-0.374475 -0.259270 -0.035231 -0.070554 -0.048268 -0.035474 -0.161494 0.043500 -3.177778 0.759591 0.698891 0.611310 0.645099 3.247454 0.003722 0.054051 -0.009938 -0.006374 0.506388 0.099601 -0.033983 -0.045693 -0.655602 -0.667975 -0.214430 -0.232450 -0.876684 2.858845 -0.029848 -0.000013 -0.006836 -0.006843 -0.007170 -0.474466 -0.090040 0.010696 -0.005370 0.098158 0.667752 0.629858 0.134111
-0.327083 -0.069272 -0.153992 -0.069176 -0.056348 -0.053751 -0.199586 0.248149 0.603938 -2.191764 0.540339 0.314761 0.569934 -0.216772 3.135045 0.042961 0.182916 0.034627 0.410941 -0.569776 -0.013564 -0.013855 -0.449079 -0.452604 -0.233339 -0.150614 -0.631369 2.854691 -0.040312 -0.010168 -0.003392 -0.023725 -0.010216 0.483640 0.147776 0.134455 0.010097 0.040695 0.483813 0.766091 0.149805
-0.289466 -0.064047 -0.028551 -0.185418 -0.042382 -0.015430 -0.151864 0.122154 0.579935 0.401748 -2.413315 0.702788 0.458441 -0.367516 -0.092118 2.838428 -0.074003 -0.022137 0.392556 -0.698149 -0.027282 -0.038006 -0.449985 -0.473556 -0.232507 -0.156014 -0.685874 2.093381 -0.027716 -0.000059 -0.006846 -0.000161 -0.013704 -0.032684 0.040942 0.088547 0.078826 0.018031 0.269943 0.485770 0.087787
-0.308077 -0.056613 -0.042802 -0.034148 -0.158210 -0.053698 -0.156877 0.231038 0.702819 0.683111 0.428147 -2.370203 0.493941 -0.298773 -0.088463 -0.090218 3.045791 -0.267278 0.293223 -0.526088 -0.020522 -0.024470 -0.435089 -0.449274 -0.217482 -0.166582 -0.619440 2.431140 -0.021008 -0.000083 -0.013601 -0.000142 -0.006887 -0.206560 0.083799 0.004704 0.097389 0.019185 0.419264 0.602418 0.125272
-0.282374 -0.042314 -0.036279 -0.036974 -0.024170 -0.172201 -0.160595 0.122832 0.609692 0.488899 0.470703 0.600465 -2.533183 -0.259629 0.191745 -0.160293 -0.076881 2.894024 0.486256 -0.534746 -0.020384 -0.037192 -0.435921 -0.432319 -0.220645 -0.131525 -0.600595 2.331802 -0.019580 -0.000071 -0.000192 -0.007108 -0.015275 -0.035293 -0.110596 -0.127946 0.077366 0.179692 0.379593 0.718589 0.122101
-0.200213 -0.013266 -0.038283 -0.029042 -0.023230 -0.033683 -0.134118 0.191122 0.327019 0.212486 0.168549 0.121248 0.108056 -1.472833 -0.748912 -0.843468 -0.815561 -0.850347 -0.746236 0.453185 -0.011638 -0.028254 -0.485126 -0.492173 -0.236523 -0.183316 -0.612280 1.591494 -0.027249 -0.000641 -0.007692 -0.008961 -0.006711 -0.247416 -0.115559 0.054031 0.096910 -0.003035 0.287459 0.183204 0.066179
1.479838 6.629782 -0.162692 -1.097140 -0.931687 -0.773967 -1.631105 0.320955 0.179809 -0.121462 0.167587 0.112063 -0.012337 -0.051283 0.009698 -0.098101 0.068797 0.033188 -0.004705 0.607612 -0.842047 -0.291981 0.293377 0.081429 0.078895 0.065618 -0.370313 -0.696936 -2.679971 0.706802 0.237220 0.073930 0.116350 0.188365 0.246952 0.183351 0.027943 -0.013763 0.277993 0.310513 0.090946
2.384728 -2.132006 6.967260 -0.881095 -0.799327 -0.760787 -1.390196 -0.016292 0.059157 0.035713 -0.091335 0.017059 -0.012396 -0.115859 0.177857 0.011926 -0.053655 -0.025367 -0.024491 0.000537 0.319361 1.935553 1.293657 -0.815231 0.002069 0.029516 0.269166 0.060041 1.158064 -1.502485 0.064724 0.051420 0.030352 0.023609 0.057629 0.060509 0.000690 0.141257 -0.104932 -0.143351 -0.026458
2.667507 -1.139988 -2.426558 6.738190 -0.915096 -0.906499 -1.420863 0.203869 -0.036870 0.134654 0.051248 0.024638 -0.003892 -0.045866 -0.025956 0.126883 0.002884 0.011818 0.034091 -0.034459 0.033157 1.356137 0.787441 -0.383191 -0.233207 0.069433 0.230809 0.242807 0.951306 0.119714 -1.182659 0.188889 0.106069 0.130772 -0.039102 0.039593 -0.016694 0.013117 0.304537 0.363013 0.087142
3.031476 -1.321371 -1.913324 -1.806270 6.636743 -1.255003 -1.812448 0.261416 0.032253 0.055034 -0.042482 0.100925 0.050493 0.078119 -0.058276 -0.007323 0.130398 -0.170927 0.065193 -0.053974 -0.054848 0.997296 0.449202 0.019254 -0.023446 0.101175 0.362572 0.463726 0.440242 0.068675 -0.076543 -1.079182 0.170779 -0.030304 -0.094135 -0.058978 0.010272 -0.015738 0.205556 0.350362 0.081733
3.364686 -1.619213 -1.531598 -1.505524 -1.424319 6.574558 -2.606568 0.404521 0.067681 0.110345 0.062916 0.066057 0.056344 0.018916 0.056238 -0.048281 -0.052599 0.125488 0.041178 -0.032405 -0.125867 0.588045 0.153750 0.141861 0.027989 0.025634 0.419077 0.454415 0.080372 0.109659 0.014163 0.011156 -1.047362 -0.041960 0.034755 0.122738 -0.006143 0.001057 0.387932 0.444037 0.123649
3.253894 -3.155885 -1.968373 -2.069350 -1.998017 -1.804164 5.716003 -0.006902 -0.064869 0.014183 -0.010489 -0.021156 0.053607 -0.084259 -0.049276 -0.053347 -0.028349 -0.048593 0.021821 0.043803 -0.004671 -1.995622 -0.727265 0.813115 0.091980 -0.002323 -0.073453 -0.002692 -0.160619 0.200264 0.366066 0.258392 0.219616 -0.023280 -0.029364 -0.047343 0.008605 -0.005189 0.066384 0.022192 0.008167
-19.844595 -2.315038 -3.490277 -3.509831 -3.219057 -3.834634 -11.292393 5.098393 31.648315 -3.540400 -6.645149 -3.636765 -5.774572 4.504748 -1.069312 -1.244420 -2.727187 -1.219829 -6.953037 1.438865 0.853424 2.276216 1.532579 6.424950 2.235980 -5.838275 15.536633 14.756696 6.398974 -4.087553 -0.064339 1.468484 -0.348458 -17.638715 0.444276 0.286736 1.977896 -1.634853 -2.562291 -4.400180 -0.186408
-6.109941 -0.293519 -1.633530 -1.027628 -1.059551 -1.075939 -2.998300 0.759271 -3.634019 11.072384 -1.671025 -1.571741 -1.837617 0.051035 0.029508 0.407793 0.099670 -0.018756 -1.598711 0.111969 2.226127 0.861461 1.368683 2.034489 0.024646 -1.919229 4.216864 4.093356 0.557953 -0.115587 -0.167730 0.174604 -0.025533 -1.613282 -3.731614 0.546812 -0.038606 0.079612 -0.585133 -1.016408 -0.084227
-5.301200 -0.219599 -0.691169 -1.690715 -0.962914 -1.002725 -2.340013 0.850649 -1.970476 -2.541171 10.331733 -1.468865 -1.589263 0.074979 -0.308709 0.078945 0.019257 0.243915 -1.911309 -0.182158 0.226807 0.415218 1.242797 1.609508 0.021032 -2.002316 4.077171 3.667870 0.527546 -0.716527 -0.048006 -0.692360 0.039887 -1.020701 -0.300887 -3.258470 0.535433 0.193228 -0.555172 -0.117610 0.017787
-4.463599 -0.257795 -0.636227 -0.634634 -1.380182 -0.734367 -1.957575 1.328485 -1.164938 -1.706514 -2.183071 9.214653 -1.380174 0.298761 0.018257 0.015568 0.516477 0.054138 -1.451471 -0.468765 0.051707 -0.010424 0.950065 1.447693 0.037480 -1.886496 4.609732 3.823692 0.577427 -0.943123 -0.090717 -0.673138 -0.299867 -1.069403 -0.330079 -0.605929 -3.640867 0.426451 0.559652 0.370464 0.225860
-4.876401 -0.327931 -0.711244 -0.796843 -0.761155 -1.420838 -2.062489 0.672337 -1.177403 -2.121941 -2.030460 -1.699288 9.200095 0.009563 0.087277 0.275949 -0.316906 -0.071107 -1.498666 -0.364826 -0.176133 -0.195826 0.888022 1.528193 0.234589 -1.834963 3.879739 3.072935 -0.137845 -0.737272 -0.471273 -0.338545 -0.336002 -0.743639 -0.211129 -0.164648 -0.620513 -3.707921 -0.083839 -0.212486 0.037601
-2.847526 -0.312977 -0.488579 -0.489073 -0.468053 -0.526218 -0.961132 0.487206 0.149632 -0.369285 -0.186689 -0.232700 -0.178856 0.383228 0.198257 0.258059 0.186226 0.094888 1.305103 -0.267469 0.009815 -0.409669 0.539641 0.969969 0.048067 -2.699673 2.439463 1.814937 -0.256716 -0.532873 -0.396038 -0.585687 -0.484769 0.825619 0.126037 0.087865 0.362730 0.328020 0.138586 0.227248 0.085304
-11.259560 -2.185364 -1.899120 -1.849573 -1.768363 -1.907716 -5.572721 0.404691 -8.840687 0.635304 2.753707 2.160448 1.635473 12.222096 1.465803 -0.305229 -0.036539 -0.141743 2.060446 -0.289711 0.890816 3.946406 2.126314 2.978464 1.040858 0.901744 11.195892 10.261279 0.835424 -1.934172 -0.542343 -0.747353 -0.951080 -0.246499 0.227549 0.509457 1.242276 0.266239 1.484431 2.353396 0.424252
-3.668739 -0.134764 -1.560564 -0.595575 -0.459397 -0.526392 -1.242865 0.674536 1.096889 -3.168882 0.463826 0.682463 0.939150 -0.643453 3.994120 0.099152 -0.043628 0.084172 0.661090 -0.105958 0.894880 1.107134 1.020534 0.911181 0.211628 0.281264 4.152419 3.728375 0.930015 -0.471441 -0.302269 -0.205518 -0.432181 -0.047883 0.169125 0.067922 0.096167 0.219488 1.164205 1.128910 0.296765
-3.555398 -0.133344 -0.424232 -1.672368 -0.412902 -0.529957 -1.244708 0.335957 0.690192 1.068482 -3.227511 0.383508 0.671725 -0.069050 -0.537079 4.024563 -0.146958 0.153957 0.749562 -0.348116 0.444647 0.456689 1.075474 0.896637 -0.121797 0.098373 3.638691 3.231790 0.657643 -0.352904 -0.358323 -0.276217 -0.276346 -0.082282 0.004851 0.022776 -0.061193 -0.038874 0.984710 0.826685 0.214735
-3.256581 -0.210005 -0.402407 -0.398456 -1.437447 -0.476544 -1.068380 0.263079 0.459450 0.822556 0.785901 -3.031532 0.755923 0.285686 -0.073178 -0.185208 3.864657 -0.074978 0.470782 -0.594947 0.110246 0.703542 0.955951 0.642318 -0.096921 0.233289 3.398246 2.691523 0.195060 -0.544397 -0.275077 -0.251360 -0.336887 -0.324018 0.073908 -0.087406 0.197108 -0.097807 0.897114 0.671064 0.183126
-3.096354 -0.239120 -0.404317 -0.415975 -0.404932 -1.399776 -0.908939 0.466521 0.535549 0.882193 0.689475 0.772562 -2.996746 0.621023 0.237500 -0.109473 0.021368 3.836079 0.583489 -0.524381 -0.018572 0.228966 0.726771 0.817083 -0.030776 0.199756 3.432966 2.758774 0.166513 -0.362919 -0.541712 -0.565158 -0.288671 -0.039250 0.006057 -0.034095 -0.005820 0.114553 0.898241 0.911521 0.227628
-2.920826 -0.339249 -0.465941 -0.428543 -0.402526 -0.401808 -1.092572 0.153584 -0.028524 0.284380 0.346569 0.225959 0.253800 -0.503636 -0.984549 -0.922669 -0.977714 -1.106434 -0.928600 0.663383 -0.029247 -0.475038 0.646403 1.009024 -0.083141 0.422188 2.410538 1.811850 -0.329370 -0.478624 -0.611506 -0.531738 -0.445215 -0.121651 -0.028615 0.088521 0.013303 0.023305 0.360267 0.421501 0.093535
