-1.121451 -0.480365 -0.181027 -0.250046 -0.171660 -0.184231 -0.626469 1.654596 11.090307 -1.671512 -1.982924 -1.612518 -1.998050 -0.540904 -0.239160 0.319790 -0.182309 0.652381 -2.170708 0.528007 -0.063217 -0.174243 -1.570714 -1.637979 -0.553579 -0.185020 -2.285640 4.492547 -0.118531 -0.047385 -0.039488 -0.000001 -0.015795 -2.377683 0.908940 -0.357863 -0.489929 0.002294 -0.400178 -1.118695 0.013572
-1.131892 -0.270131 -0.542101 -0.200192 -0.142767 -0.269697 -0.724303 1.809348 1.844700 16.335863 -4.503975 -3.668726 -3.925866 -1.102762 0.138424 0.268732 -0.457035 0.431397 -4.272647 -0.504438 -0.132614 -0.197032 -1.539918 -1.586876 -0.944054 -0.300317 -2.924945 5.029420 -0.260794 -0.047799 -0.071078 -0.055283 -0.096119 8.562434 -4.507291 -1.485220 -0.883572 -0.577457 -0.925198 -1.131388 -0.024724
-1.281463 -0.207193 -0.246501 -0.492277 -0.225399 -0.108195 -0.718894 1.421772 -2.453400 -3.137587 16.246508 -3.715359 -3.281651 0.329037 0.614131 0.205927 -0.008034 1.043907 -2.236740 -0.805804 -0.031592 -0.183864 -1.567363 -1.660851 -0.961868 -0.153435 -2.478536 3.052720 -0.110704 -0.000003 -0.047385 -0.031546 -0.125594 3.348913 2.624310 -4.147602 0.709215 0.126355 -1.496272 -1.542637 -0.161714
-1.123527 -0.249645 -0.174653 -0.160994 -0.416288 -0.206454 -0.602263 0.762088 -2.709530 -3.268042 -2.444191 15.847192 -3.734881 -0.387451 -0.311274 0.489659 0.118545 -0.106330 -2.928461 -0.761185 -0.063053 -0.011895 -1.530998 -1.533511 -0.830781 -0.220641 -2.661398 3.372765 -0.169009 -0.055283 -0.047385 -0.039488 -0.094844 1.982075 0.284646 0.692353 -3.987347 -0.104733 -0.652927 -1.357206 -0.124804
-1.089179 -0.190104 -0.190639 -0.186155 -0.209677 -0.362885 -0.645927 1.072260 -4.632781 -3.336501 -2.113088 -1.969307 16.100554 -0.435385 0.175504 -0.028388 -0.208328 -0.063599 -2.976618 -0.539387 -0.015796 -0.143759 -1.459657 -1.492208 -1.090097 -0.320545 -2.418702 4.656240 -0.157967 -0.063135 -0.047385 -0.063180 -0.079044 0.464458 0.125030 0.506634 0.179809 -4.172488 -0.094474 -0.714692 0.026309
-0.412964 -0.077726 -0.085353 -0.101302 -0.086801 -0.111116 -0.162298 -0.075391 -0.972989 -0.850232 0.013640 0.045869 -0.159229 -0.251576 0.146365 -0.143040 0.073370 0.021616 1.847550 -0.231465 -0.000043 -0.079143 -0.690903 -0.722380 -0.442167 -0.064204 -1.158577 2.073800 -0.087522 -0.031625 -0.015805 -0.000214 -0.031666 0.274024 -0.151579 0.186062 0.192335 0.161002 0.044315 0.249769 0.021869
-0.793864 -0.473568 -0.158644 -0.075023 -0.133757 -0.158739 -0.429338 -0.304007 -4.028071 0.867847 0.840508 0.648751 0.674423 4.092063 0.146259 -0.021130 -0.052480 -0.160175 0.692534 0.352889 -0.047510 -0.113332 -1.125993 -1.144634 -0.390809 -0.382289 -1.507334 3.504394 -0.063978 -0.031590 -0.015795 -0.000000 -0.048863 -0.408827 -0.024793 0.066673 -0.003850 -0.055855 0.553039 0.215068 0.046410
-0.718766 -0.112761 -0.389157 -0.091861 -0.063330 -0.132735 -0.381794 -0.123115 0.385601 -3.481170 0.744859 0.804821 0.937679 -0.605310 4.494938 0.078133 0.154817 0.187998 0.485095 -1.376881 -0.007901 -0.087330 -0.883935 -0.900165 -0.522402 -0.197448 -1.550949 2.835597 -0.107158 -0.000000 -0.015689 -0.014370 -0.086223 0.769658 0.107126 -0.040315 0.180081 -0.154829 0.086404 0.040449 0.000374
-0.608612 -0.112547 -0.086081 -0.347282 -0.161718 -0.110968 -0.328256 -0.328048 0.530697 0.640199 -3.409188 0.822578 0.587216 -0.314208 0.064046 4.128026 -0.137285 -0.106895 0.500451 -0.594534 -0.047387 -0.094779 -0.792591 -0.824170 -0.442029 -0.199542 -1.360288 2.554817 -0.080716 -0.023696 -0.015797 -0.015802 -0.086880 0.171908 0.042804 0.179531 0.038727 -0.009386 0.293481 0.026373 -0.000819
-0.546351 -0.075498 -0.060210 -0.093502 -0.299648 -0.054182 -0.322178 -0.121543 0.870549 0.879968 0.622216 -3.590001 0.531383 -0.542525 0.495897 -0.360775 4.056020 -0.316500 0.564341 -0.414639 -0.000466 -0.040089 -0.739601 -0.787556 -0.496319 -0.197639 -1.276262 2.533257 -0.070899 -0.033726 -0.015798 -0.015799 -0.016259 -0.308315 0.199641 0.207859 -0.009849 0.082458 0.284784 0.088825 0.025207
-0.544768 -0.142090 -0.079005 -0.024019 -0.131213 -0.304126 -0.336930 -0.332866 0.808989 0.399792 0.584178 0.756521 -3.460285 -0.164039 0.079944 0.047983 0.067851 4.074812 0.577940 -0.757499 -0.063203 -0.063481 -0.781895 -0.812512 -0.442489 -0.253044 -1.288581 2.087282 -0.057285 -0.015796 -0.015798 -0.000155 -0.017201 -0.095605 -0.082293 -0.052909 0.137405 -0.161601 -0.137547 0.122505 -0.034791
-0.309027 -0.034985 -0.049178 -0.076992 -0.021876 -0.064629 -0.221063 0.076715 0.373906 0.192101 0.109054 0.017578 0.190607 -1.685658 -0.773076 -1.027230 -0.863713 -0.859310 -0.806531 0.493372 -0.008421 -0.011839 -0.578927 -0.580968 -0.238908 -0.264545 -0.773063 1.679135 -0.043233 -0.000234 -0.000182 -0.008195 -0.008830 -0.365243 -0.050117 -0.077045 0.019687 0.089812 0.162087 0.144805 0.038361
1.500585 7.074597 -0.023389 -1.199733 -1.152674 -1.000501 -1.940854 -0.215099 0.096818 -0.237495 0.268245 -0.028680 -0.021216 0.060406 0.009608 -0.045430 -0.040090 0.153422 -0.292771 0.623528 -0.933653 -0.235671 0.304062 -0.098519 0.079642 -0.102926 -0.522197 -0.807466 -3.034681 0.873718 0.530004 0.017027 0.131965 0.343549 0.266568 0.349041 0.054099 -0.034093 -0.276222 -0.210818 -0.070214
2.731211 -2.445601 7.881022 -1.045454 -0.822697 -1.024922 -1.602470 -0.113953 0.117409 -0.010994 -0.210760 0.153366 -0.092606 -0.070606 0.116225 0.026389 -0.103907 -0.036282 -0.070368 -0.175223 0.224768 2.217062 1.549385 -1.113448 -0.308255 -0.020450 0.482209 0.174162 1.241614 -1.707468 -0.008097 0.105722 0.030021 0.048507 0.049827 0.057687 0.081371 0.140938 -0.285727 -0.126136 -0.052582
2.993966 -1.394748 -2.786016 7.713839 -1.058287 -1.329952 -1.743358 0.136017 0.007256 0.263916 -0.030818 -0.098981 -0.020425 -0.089025 -0.152457 0.053665 0.023009 0.077577 0.015069 -0.105919 0.301029 1.599829 0.857524 -0.598704 -0.178492 0.006188 0.393509 0.388662 0.977935 -0.109420 -1.347343 0.229383 0.103674 0.161029 -0.092689 -0.121830 0.110367 0.085476 0.608650 0.380759 0.112543
3.494377 -1.466670 -2.418112 -2.278636 7.697542 -1.479389 -2.187462 0.121053 0.004887 -0.076382 0.002318 0.136266 0.093027 0.045380 -0.030412 -0.069682 0.342266 -0.046451 -0.039063 -0.027099 -0.048824 1.150063 0.350310 -0.153229 -0.207016 0.159991 0.577629 0.571984 0.410681 -0.021601 -0.112193 -1.332734 0.233611 0.045337 -0.108143 -0.083979 -0.093812 -0.017591 0.097435 -0.070792 0.014770
3.645323 -2.050708 -1.956494 -1.890757 -1.673064 7.719527 -3.184367 -0.262446 0.014585 -0.062741 -0.079754 -0.116050 -0.101124 -0.107935 0.122740 -0.034195 -0.106115 0.029675 0.082639 -0.127232 -0.100692 0.945570 0.187743 0.287748 -0.031868 -0.039122 0.420946 0.452422 0.209679 0.145442 -0.082197 0.009163 -1.250286 -0.058810 -0.031394 0.049731 0.025989 -0.126684 -0.383710 -0.239215 -0.088537
3.355875 -3.379940 -2.088288 -2.237430 -2.100295 -2.049856 6.141194 0.052966 -0.066982 -0.009102 0.035705 -0.011879 -0.033581 -0.037462 -0.015961 -0.116059 -0.113592 -0.068146 0.138806 0.009128 -0.038026 -2.314169 -0.736777 0.966289 0.105962 0.083648 -0.051380 0.013790 -0.120561 0.330250 0.384279 0.274204 0.106846 -0.016983 0.025359 -0.116233 -0.005486 -0.036113 0.046343 -0.091917 0.000739
-35.936145 -4.987475 -6.947441 -6.544089 -6.129741 -7.035497 -22.178482 1.075258 49.469084 -7.305335 -6.411011 -11.839627 -8.677007 16.324546 0.131903 0.721136 -8.853165 -1.797035 -14.160846 3.407512 4.711934 5.597848 1.251743 6.101821 -1.002030 -10.931448 19.356812 11.078595 9.026665 -4.268570 4.338386 2.451663 -0.830435 -29.855386 1.414378 -3.011173 -1.778339 2.549232 -15.210331 -18.955078 -3.309015
-11.616491 -0.370397 -3.620523 -2.300759 -1.992869 -1.855711 -5.460727 -0.328689 -6.826363 19.606228 -3.959695 -2.770032 -3.052130 -1.794001 1.556411 0.508651 -0.241069 -0.200466 -3.326697 -0.985590 4.277450 0.907642 2.698423 3.441887 1.000906 -3.912313 6.060396 5.977738 2.489531 -0.439338 0.160367 0.311121 0.039275 -2.619506 -7.261240 0.389488 -0.415667 0.556660 -1.886238 -3.144443 -0.535937
-10.082017 -0.446668 -1.377816 -3.515555 -1.520434 -1.821615 -4.506000 0.039813 -2.456932 -4.583314 18.271667 -3.792857 -2.375540 -0.340715 -1.367574 1.697458 -0.314420 0.069610 -5.023212 -0.574108 0.786447 0.335649 2.078978 2.549952 -0.038058 -3.967364 6.620236 4.408607 0.506230 -0.607337 0.021245 -1.035854 0.044443 -0.813168 -1.324103 -6.440988 0.356818 0.672975 -1.478008 -2.234391 -0.367259
-8.752950 -0.587587 -1.220519 -1.363944 -2.847236 -1.438537 -3.697402 0.499760 -2.693867 -3.698921 -3.959328 15.903171 -2.527283 0.126607 0.632088 -0.276871 1.200666 -0.489162 -2.524012 -0.822506 0.754391 -0.092662 1.844873 2.078281 0.403276 -3.632665 5.299309 3.609173 1.110554 -1.072626 -0.345487 -0.979181 -0.342087 -1.331335 -0.547972 -0.559613 -6.789664 -0.067104 -1.703858 -2.198721 -0.340282
-9.477477 -0.870154 -1.458459 -1.578326 -1.266580 -2.938311 -4.106890 -0.294112 -2.040615 -3.638645 -3.554417 -3.530308 16.096961 0.380541 0.067524 -0.089923 -0.449640 0.379786 -3.627089 -0.646460 -0.227604 -0.786606 1.222956 3.209129 0.472132 -3.640876 5.099163 3.557401 -0.462415 -0.901083 -0.469953 -0.993898 -0.553290 -1.780613 -0.234643 -0.293346 -1.090285 -7.215728 -1.790064 -2.586613 -0.467079
-3.977682 -0.392130 -0.643834 -0.819049 -0.595149 -0.637240 -1.646304 0.436970 0.039260 -0.562397 -0.234441 -0.063035 -0.342003 0.279618 0.263865 0.126343 0.077281 0.259215 1.599586 -0.504869 -0.025915 -0.547927 0.721999 1.012587 0.249547 -3.441930 3.071985 2.265031 -0.399305 -0.775167 -0.598296 -0.488286 -0.655543 1.022234 0.181564 0.092336 0.210788 0.158206 -0.293210 0.035099 0.017886
-22.654291 -4.151747 -3.398330 -4.015937 -3.813208 -3.393517 -12.768207 -5.809700 -14.130701 -0.563884 2.044744 3.778995 0.647639 23.717417 2.773600 0.017703 -1.152680 -0.156301 2.413506 -0.737118 2.859925 8.487677 2.296563 6.648592 0.762715 3.663551 12.070876 8.632725 4.455022 -2.252005 -0.095478 -2.430341 1.021004 -0.382271 1.112934 -1.220963 1.130084 1.052623 -4.995396 -4.998025 -1.580312
-7.297425 -0.301544 -3.035983 -1.317328 -1.206214 -1.219808 -2.776727 -1.173100 1.477829 -5.569285 0.645500 0.850059 0.924032 -1.186569 6.163794 0.016023 -0.397453 -0.094074 0.498765 -0.455218 1.552164 1.740155 1.726348 1.520323 0.094934 0.255747 4.820465 3.534876 1.427360 -0.518089 -0.658125 -0.406524 -0.426711 -0.171944 0.199447 0.070103 -0.028999 0.154930 -0.884466 -0.203077 -0.226064
-6.681785 -0.313227 -0.869460 -2.956878 -0.981924 -0.945660 -2.589818 -0.781481 1.056518 1.629599 -5.590217 0.504130 1.039825 -0.306191 -0.351809 6.344322 -0.257562 -0.090481 0.578664 -0.292548 0.562106 0.765034 1.334628 1.666744 0.397557 0.312300 5.104342 4.107645 0.857178 0.128522 0.237793 -0.209168 -0.672847 -0.180783 0.176776 -0.004109 -0.108496 0.071316 0.201590 0.356279 -0.022361
-5.590688 -0.460356 -0.729435 -0.688904 -2.313932 -0.879291 -1.973743 -0.072295 0.554657 1.061464 1.022389 -4.345598 0.823014 0.661556 -0.242553 -0.233032 5.556730 -0.301044 0.811779 -0.822695 -0.157056 0.613631 1.458989 0.979203 0.059022 0.460130 4.105539 3.395543 0.386242 -0.676419 -0.857924 -0.455351 -0.566309 -0.444727 0.041091 0.200310 0.218022 0.106237 -0.060509 -0.037995 -0.017080
-5.637564 -0.252572 -0.740510 -0.804148 -0.778383 -2.435269 -2.168934 -0.493995 0.537495 1.495997 0.860442 0.682214 -4.741398 0.788257 0.008977 0.297553 -0.357697 5.685699 0.671254 -0.896827 -0.152796 0.635072 0.920640 1.148364 -0.242585 0.298939 4.075569 3.248872 0.109582 -0.608938 -0.806274 -0.912124 -0.329583 0.066818 0.003758 0.153766 -0.122296 0.100093 -0.089758 0.339602 -0.024415
-3.215689 -0.413384 -0.509878 -0.558013 -0.450939 -0.453667 -1.237027 0.130957 0.043555 0.335451 0.345551 0.192959 0.234573 -0.657348 -1.040003 -1.093090 -1.190040 -1.325558 -1.021132 0.732608 0.115763 -0.414875 0.718576 1.086297 0.039701 0.595396 2.619180 1.873453 -0.324169 -0.574223 -0.636531 -0.619732 -0.500101 -0.159510 -0.162347 0.063001 -0.046068 -0.020951 0.334195 0.161793 0.062695
