-0.429874 -0.169229 -0.070064 -0.081613 -0.064532 -0.071005 -0.247550 0.089935 4.712743 -0.883719 -0.823355 -0.700332 -0.728016 -0.246796 0.055763 0.057319 -0.045174 -0.059154 -0.612229 0.965093 -0.701786 -0.025495 -0.549796 -0.561817 -0.272761 -0.106627 -0.651471 0.660544 -0.024976 -0.004632 -0.005682 -0.012197 -0.012317 -1.098252 0.512766 0.371979 0.234849 0.153058 -0.034544 0.243726 -0.076459
-0.164136 -0.032748 -0.076914 -0.025282 -0.023876 -0.023657 -0.092671 -0.275102 0.631021 2.709438 -1.086851 -0.660369 -0.596843 -0.202628 0.449730 -0.104008 -0.359996 -0.236642 -0.641350 0.355046 -0.271560 -0.018091 -0.195965 -0.204148 -0.194813 -0.048596 -0.411217 0.543883 -0.028696 -0.009427 -0.012101 -0.013887 -0.023407 0.231174 -1.013999 0.085783 -0.086842 -0.216743 0.071999 -0.120740 -0.016467
-0.155624 -0.026079 -0.034888 -0.068079 -0.017257 -0.018659 -0.087386 -0.078581 0.171043 -0.205959 2.892889 -0.879234 -0.758203 -0.343546 0.142527 0.327306 -0.588168 -0.360517 -0.771940 0.448597 -0.287104 -0.020451 -0.201639 -0.206053 -0.188059 -0.039135 -0.441520 0.513145 -0.028898 -0.011111 -0.011420 -0.017808 -0.023523 -0.087895 0.109402 -1.068437 0.069729 0.062791 0.103462 -0.033841 -0.020032
-0.264874 -0.061814 -0.058293 -0.063293 -0.074187 -0.029631 -0.124533 -0.796881 -0.351697 -0.380932 -0.313059 4.272253 -1.374299 0.381264 0.500622 0.449392 0.334455 -0.302461 -1.267711 0.584555 -0.481441 -0.022691 -0.334411 -0.343129 -0.199874 -0.031096 -0.672926 0.396400 -0.025513 -0.011286 -0.017162 -0.021978 -0.036647 0.206646 0.007633 0.059709 -1.578901 0.185417 0.157891 -0.123079 -0.071331
-0.260079 -0.046171 -0.063229 -0.054025 -0.050826 -0.085042 -0.117500 -0.753680 -0.394146 -0.577839 -0.446883 -0.286987 3.996028 0.201428 0.511013 0.471892 0.253146 0.492987 -1.462728 0.827444 -0.477887 -0.030936 -0.334943 -0.344425 -0.208058 -0.038858 -0.660013 0.467033 -0.029383 -0.013997 -0.018008 -0.024702 -0.024980 0.132971 0.021533 -0.028437 -0.007851 -1.601087 0.232625 -0.008102 -0.062881
-0.161727 -0.021102 -0.023781 -0.029992 -0.021886 -0.030520 -0.079149 1.119672 -0.793654 -0.610835 -0.492232 -0.304090 -0.345700 -0.412404 0.268391 0.288289 0.084334 0.196549 1.131485 -1.415027 -0.351740 -0.012433 -0.432038 -0.437292 -0.253793 -0.013141 -0.497336 1.905902 -0.022339 -0.002465 -0.001346 -0.011368 -0.005753 0.634466 0.052393 0.117393 0.072195 0.029092 -0.078147 -0.570074 0.118406
-0.321328 -0.191552 -0.045509 -0.038432 -0.038514 -0.037941 -0.126668 0.697122 -3.269239 0.679761 0.611408 0.626728 0.582440 3.409559 -0.023752 -0.011467 -0.161072 -0.115623 0.581649 -0.187253 -0.563579 -0.018603 -0.635889 -0.647700 -0.283199 -0.206404 -0.699140 2.517521 -0.022661 -0.000110 -0.006684 -0.009315 -0.008443 -0.024125 -0.076048 -0.067608 0.089000 0.118382 0.079644 0.644651 0.131765
-0.165442 -0.031875 -0.084128 -0.023608 -0.012534 -0.018337 -0.079383 0.103676 -0.438572 -1.430316 0.492507 0.217830 0.269414 0.438300 1.927588 -0.324086 -0.497379 -0.256656 0.191511 -0.697624 -0.225996 -0.014114 -0.212755 -0.218694 -0.197139 -0.064108 -0.340596 0.947738 -0.022891 -0.005348 -0.007157 -0.009162 -0.011001 0.285406 -0.012600 0.006955 0.090729 0.113530 -0.135044 -0.047105 0.034198
-0.109242 -0.014428 -0.019725 -0.050394 -0.009133 -0.006674 -0.054247 0.194251 -0.235786 -0.021070 -1.631172 0.390759 0.339088 0.058153 0.402937 2.027790 -0.712810 -0.419989 0.279852 -0.878328 -0.111600 -0.014165 -0.160999 -0.165074 -0.175350 -0.054621 -0.275064 1.283414 -0.018176 -0.005207 -0.006334 -0.009880 -0.011149 0.354316 0.032749 0.052496 0.079302 0.052222 -0.093696 0.296513 0.084508
-0.194495 -0.025991 -0.031863 -0.037601 -0.108768 -0.010057 -0.058412 0.375492 0.103563 0.014093 0.045943 -2.641927 0.589600 0.444366 0.675234 0.687430 3.205326 -0.457227 0.352509 -1.536218 -0.284872 -0.014955 -0.297728 -0.303523 -0.188301 -0.104267 -0.443014 1.312164 -0.016562 -0.005143 -0.005968 -0.005901 -0.015641 0.015881 0.118626 0.077172 0.127757 0.101396 -0.079084 0.198815 0.059019
-0.170075 -0.018493 -0.027167 -0.022184 -0.023281 -0.092710 -0.052792 0.428086 0.066122 0.201774 0.092387 -0.011090 -2.344153 0.448838 0.769729 0.721568 0.726449 3.256538 0.430135 -1.564826 -0.234230 -0.013720 -0.275010 -0.282656 -0.194098 -0.095582 -0.392723 1.475852 -0.020646 -0.007480 -0.008012 -0.010183 -0.007093 0.177986 0.036224 0.041145 0.024811 0.064377 -0.075166 0.233917 0.083999
-0.146285 -0.010614 -0.025260 -0.012852 -0.025505 -0.026491 -0.089793 -0.058978 0.619831 0.427425 0.400224 0.281138 0.228096 -1.910155 -0.760926 -0.728783 -0.758354 -0.705834 -0.665432 1.291281 -0.306004 -0.014921 -0.484621 -0.493576 -0.251543 -0.244843 -0.543033 2.926860 -0.025635 -0.001334 -0.006176 -0.005495 -0.003785 1.078216 0.027717 0.053905 0.081351 -0.029131 -0.068417 1.140500 0.215974
1.630284 7.130502 -0.789453 -0.913909 -0.877768 -0.803963 -1.322951 -0.348278 0.039260 0.069248 0.124065 0.115874 0.069873 0.398026 0.073386 -0.009315 -0.002274 0.053776 0.084148 0.502468 0.023490 -0.341911 0.614855 0.149121 0.082422 0.065783 -0.057039 -0.270666 -2.631038 0.461657 0.071506 0.074807 0.074030 -0.347629 0.142495 0.092534 0.024294 0.029300 -0.080420 -0.420303 -0.111621
2.580070 -1.427801 6.970372 -1.508779 -1.308919 -1.180527 -1.857299 0.472415 0.056079 -0.023336 -0.025147 0.036488 -0.009173 -0.072812 0.093310 -0.030075 -0.005127 -0.003189 -0.013054 0.021857 0.513884 2.024295 0.895147 -1.095756 -0.099697 -0.033118 0.231336 0.216491 1.482267 -1.495482 0.240876 0.162262 0.116588 0.483736 -0.013736 -0.014541 -0.046604 -0.044044 0.047634 0.443771 0.139992
2.930133 -1.281189 -1.707814 6.569351 -1.798299 -1.696742 -2.385223 0.720113 -0.013500 0.028045 -0.027446 -0.032781 0.033657 -0.007936 -0.047217 0.075670 -0.053460 -0.081396 0.052813 0.040788 0.088864 1.557852 0.568181 -0.645154 -0.010147 0.041007 0.229988 0.280665 0.862581 0.047724 -1.275701 0.221715 0.193996 0.630919 -0.014798 0.003542 -0.006573 -0.048309 -0.009342 0.770917 0.212195
3.150516 -1.555846 -1.478800 -1.339149 6.618149 -2.432554 -3.191746 0.645678 -0.028757 0.028081 -0.023080 -0.021831 0.038029 -0.058551 -0.026106 -0.056332 0.101210 0.020926 -0.016287 -0.023844 -0.153083 1.103729 0.290294 -0.253835 0.002588 0.002824 0.257002 0.272355 0.401549 -0.157102 -0.093417 -1.252322 0.197502 0.513595 -0.028346 -0.038289 0.008599 0.009429 0.006764 0.646425 0.180570
3.129924 -1.967666 -1.342476 -1.136792 -1.063984 6.929530 -4.010882 0.961191 -0.010992 -0.011839 0.045184 0.007895 0.000810 -0.043336 -0.072680 -0.040797 -0.047617 0.116894 -0.015661 0.015396 -0.266830 0.593170 0.136816 0.155707 0.026794 0.026986 0.242251 0.185249 0.068340 -0.170765 -0.100413 -0.151027 -1.300790 0.826785 -0.090538 -0.010797 -0.036774 -0.005472 0.104575 0.976116 0.276409
3.241059 -4.148175 -1.248724 -1.126545 -1.037096 -1.005187 8.643900 -0.744614 -0.010187 -0.003715 -0.075328 -0.031862 -0.019891 -0.047739 0.007168 0.020114 0.055228 -0.017631 -0.040988 -0.181972 -0.405850 -2.140972 -0.993213 1.260965 0.056136 0.044833 -0.018231 0.001411 -1.407767 -0.069903 0.152847 0.007815 -0.011587 -0.756916 0.031582 -0.015819 0.041938 0.024359 0.004486 -0.695865 -0.219739
-1.744194 -0.269327 -0.329914 -0.386897 -0.350392 -0.288611 -0.787734 -0.183005 2.499103 -0.554048 -0.616243 -0.376742 -0.234783 0.735984 0.057943 0.144207 0.002239 -0.150581 -0.391574 0.325712 0.444670 0.422138 0.013382 0.434843 0.091573 -0.641796 0.382547 0.153920 0.474503 -0.155079 -0.078015 -0.042616 -0.023460 -1.713085 0.174826 0.335820 0.154326 0.123664 0.069900 -0.272574 -0.216866
-1.931254 -0.092422 -0.619437 -0.343702 -0.318560 -0.283153 -0.650635 -0.226464 -0.327287 3.292334 -0.730757 -0.627105 -0.471863 -0.122368 0.304393 -0.059309 -0.075060 -0.114027 -0.605501 0.529822 0.745874 0.366833 0.350192 0.363332 0.028580 -0.846249 0.905649 0.720040 0.375367 -0.069531 -0.079628 -0.072742 -0.156157 -0.510818 -1.255037 0.165724 0.116523 0.038169 0.115475 -0.078533 -0.081582
-1.947560 -0.145083 -0.354426 -0.669101 -0.279680 -0.253358 -0.593380 -0.444438 -0.203258 -0.349188 3.308043 -0.830506 -0.713857 -0.089555 -0.060357 0.267787 -0.239944 -0.271104 -0.750968 0.460267 0.430707 0.156511 0.363373 0.396856 0.001586 -0.812100 0.771177 0.503273 0.124017 -0.101298 0.016023 -0.102681 -0.160371 -0.498648 -0.231376 -1.295388 0.235345 0.129379 0.044303 -0.169098 -0.111218
-1.915678 -0.164608 -0.341188 -0.366918 -0.638555 -0.198987 -0.513416 -0.422547 -0.194260 -0.372936 -0.468211 3.293707 -0.916922 0.044652 0.097681 0.095332 0.366293 -0.370456 -0.950710 0.390668 0.339695 -0.089282 0.388624 0.483532 0.010634 -0.776156 0.886261 0.589720 -0.009539 -0.209366 -0.150643 -0.097784 -0.091988 -0.275921 -0.168530 -0.166065 -1.421928 0.212212 -0.031258 -0.110193 -0.080866
-2.323350 -0.182601 -0.448443 -0.451568 -0.410430 -0.661810 -0.529713 -1.087215 -0.299716 -0.350830 -0.403634 -0.371010 3.982509 0.395944 0.378120 0.377454 0.343887 0.379614 -1.483197 1.074122 0.140555 -0.157330 0.414603 0.601687 -0.054316 -0.906713 0.920554 0.542646 0.190074 -0.203429 -0.164682 -0.121640 -0.026829 -0.040583 -0.058819 -0.061268 -0.095819 -1.729615 0.138562 -0.140201 -0.126800
-3.063224 -0.189405 -0.578030 -0.583643 -0.542743 -0.472328 -0.879836 1.012458 -0.213217 -0.662107 -0.599347 -0.569956 -0.297732 0.275458 0.205129 0.231935 0.215841 -0.040335 0.993108 -1.349250 0.212294 -0.580004 0.656464 1.001940 -0.060225 -2.411334 1.862837 1.481661 0.208698 -0.168413 -0.200985 -0.151030 -0.191464 -0.027878 0.148548 0.104687 0.028657 0.067381 -0.091975 -0.960276 0.002430
-2.044371 -0.335965 -0.349589 -0.374381 -0.321619 -0.289947 -0.760722 -0.073549 -1.698876 0.253445 0.374838 0.230462 0.230787 2.688097 0.046397 0.051888 -0.061039 -0.141159 0.211924 -0.397420 0.622676 1.480791 0.136295 0.274331 0.118482 0.217366 1.315352 1.158316 0.669935 -0.178381 -0.054309 -0.104747 -0.124660 -0.086989 -0.038475 0.073895 0.106187 0.120724 -0.042117 0.061348 -0.009919
-2.387649 -0.089519 -1.065771 -0.324654 -0.284281 -0.269225 -0.642335 0.200503 -0.002604 -1.881338 0.372438 0.385654 0.248097 0.090407 2.409996 -0.192156 -0.164205 -0.160458 0.277778 -0.599976 0.776298 1.190296 0.534306 0.162504 0.057954 0.139402 1.649553 1.492601 0.563110 -0.186502 -0.122380 -0.113098 -0.120380 0.069559 0.106491 0.110218 0.106730 0.102292 -0.028772 0.115995 0.038606
-2.413248 -0.145225 -0.372097 -1.132413 -0.234665 -0.227757 -0.539537 0.237883 -0.066406 0.030827 -2.048788 0.417742 0.387435 0.284878 0.244945 2.575511 -0.375025 -0.327623 0.339063 -0.940127 0.476084 0.704926 0.643460 0.297936 -0.014985 0.150595 1.606628 1.391023 0.206399 -0.127258 -0.176056 -0.208299 -0.190826 0.020590 -0.001496 0.148204 0.133289 0.164537 0.011702 0.029638 0.028811
-2.270640 -0.163523 -0.322127 -0.342417 -1.043337 -0.165514 -0.439041 0.503026 -0.022144 0.148753 0.104820 -2.207745 0.457854 0.520271 0.363913 0.379426 2.811463 -0.480159 0.390989 -1.127473 0.379775 0.267583 0.554588 0.435314 0.013346 0.128186 1.949732 1.609448 -0.085957 -0.252878 -0.235298 -0.182278 -0.183899 0.273900 0.100648 -0.012487 0.120372 0.114678 -0.052173 0.276299 0.105322
-2.820166 -0.136883 -0.419325 -0.439601 -0.388119 -1.229245 -0.458191 0.375307 0.036030 0.147277 0.130235 0.115688 -2.719124 0.919311 0.837304 0.810791 0.875912 3.658189 0.602893 -1.687001 0.160875 -0.062560 0.520902 0.593194 -0.016869 0.277949 1.914945 1.453002 0.191394 -0.230930 -0.303721 -0.183679 -0.161555 -0.106077 0.059893 0.065609 0.070654 0.203934 -0.076876 0.008916 0.027815
-2.869062 -0.148633 -0.467603 -0.479764 -0.484137 -0.404994 -1.028484 0.846005 0.347536 0.519680 0.564793 0.553007 0.399237 -0.971610 -1.100470 -1.021111 -0.976773 -1.022895 -0.789086 1.595166 0.298791 -0.903083 0.820890 1.535971 -0.028710 0.387855 4.273481 3.797876 0.355102 -0.260910 -0.262693 -0.293199 -0.295085 1.937794 0.091028 0.009647 0.038890 0.067740 0.005788 2.169014 0.495281
