-6.731107 -0.019716 2.795304 -0.182014 -0.167341 0.275463 -0.115973 0.023143 0.156265 -4.809071 1.137014 0.783637 0.047498 0.020386 -0.050291 0.253949 0.006344
-4.424618 0.103504 0.148400 1.680161 -0.516308 -0.376377 -0.365345 0.303756 0.100931 0.448473 -3.693197 0.407681 -0.055439 0.169430 -0.129206 -0.254666 0.003934
-9.019495 0.040440 -2.139715 -0.451042 0.184826 -0.031860 -1.479090 -1.934130 -1.788560 1.746329 1.645235 -0.637819 0.020560 -0.098762 -0.040303 -0.709005 -0.520178
1.086782 0.044012 2.180075 -0.005675 -0.046200 0.157046 1.385045 1.150359 0.853505 -6.378805 0.344962 -0.007258 0.268456 0.059920 0.060427 -3.151637 0.338891
0.769627 -0.004405 0.061238 1.602488 -0.109164 -0.069948 1.371687 1.388269 1.106950 0.941846 -5.240818 -0.075679 0.077639 0.216192 -0.024842 -0.991605 0.386691
1.267626 0.060629 -0.775685 -0.522112 0.072976 -0.148721 1.938235 0.854285 1.360446 1.300025 0.426151 -0.296112 -0.111264 -0.144693 0.112064 -3.887849 0.415297
0.431268 0.430103 2.042487 -0.145709 -0.241122 -0.409403 -1.568666 0.875336 1.065056 0.988784 0.128024 0.073196 -3.252010 0.836192 0.763695 -0.022061 0.037173
0.459702 0.659968 -0.099862 1.585722 -0.493747 -0.758009 -1.950840 1.383990 1.588617 0.757459 0.660984 0.176492 0.405409 -3.678095 0.636783 -0.000636 0.102177
-0.108791 1.709154 -0.326088 -0.488245 -0.048228 -0.429716 -2.908715 3.825297 3.687803 -0.208890 -0.044549 0.110966 0.986527 0.447407 -0.487991 -0.055256 0.460439
0.587611 -0.229367 3.424932 -0.364643 -0.272997 -0.499111 -2.465946 1.278627 1.432424 0.646829 0.171894 0.144896 0.951081 -0.055592 0.004853 -0.036287 0.024511
0.470240 -0.567216 -0.316846 2.823045 -0.468458 -0.521586 -3.066444 2.165343 2.221383 0.718345 -0.032367 0.108262 -0.343842 1.126896 0.027484 -0.011921 0.132028
-0.200164 -1.250430 -0.827523 -1.031786 0.094351 0.568424 -3.222339 6.411875 6.413589 -0.174499 -0.035750 -0.068553 -0.553349 -0.287054 0.198200 -0.171798 0.960312
