-1.829414 4.180482 -0.270859 -0.641309 -0.541746 -0.515818 -1.148307 0.671230 1.027832 -0.058106 -0.187641 -0.013774 -0.283177 -0.240923 0.244210 -0.363372 0.044867 -0.833568 -1.043809 0.029813 4.586593 -0.308262 0.056812 0.987519 0.754422 0.576971 0.436312 0.286823 -4.711901 -0.250218 -0.376774 -0.354623 -0.303004 0.340913 -0.046129 0.096601
-1.418163 -1.333318 4.533438 -0.300760 -0.438384 -0.390482 -0.748314 0.817014 -0.308673 0.892251 -0.191795 -0.089119 -0.320813 -0.207582 -0.225731 0.180865 0.801566 0.167070 -0.878346 -0.080535 3.453364 0.727699 0.855768 0.070636 1.462186 0.217739 0.275039 0.303413 0.809894 -4.469409 -0.321530 -0.346568 -0.328463 0.271212 -0.012653 0.107557
-1.222580 -0.660533 -1.611329 4.374010 -0.520173 -0.329534 -0.888183 1.007156 -0.027234 -0.262861 0.884065 -0.256138 -0.300587 -0.167229 -0.129983 -0.003703 0.698549 0.076882 -0.441294 -0.062840 3.681002 0.559657 0.752277 0.150186 -0.059751 2.058228 0.407058 0.210689 0.454532 0.176262 -4.762261 -0.303126 -0.248214 0.296207 0.042340 0.134570
-1.059483 -0.888022 -1.257872 -1.187130 4.187728 -0.706110 -1.191390 0.758802 -0.174838 -0.275901 -0.302104 0.988379 -0.267783 -0.127018 -0.159264 -0.120026 0.379403 -0.051941 -0.287631 0.022306 3.390077 0.620998 0.854355 0.113318 0.088844 0.011245 2.105273 0.299704 0.116897 -0.009676 -0.110264 -5.123617 -0.017965 0.354060 -0.017414 0.109545
-0.944262 -0.791530 -0.933637 -0.731163 -0.639323 4.262818 -1.574901 0.758891 -0.170828 -0.071878 -0.199068 -0.245836 0.816848 -0.162195 -0.032957 -0.045933 0.148170 -0.050633 -0.257458 0.039720 3.489987 0.563845 0.964571 0.053145 -0.048788 0.004904 0.090466 2.332891 0.099072 -0.039467 -0.144886 0.024330 -5.503471 0.497993 0.143691 0.140057
-3.373180 -1.523518 -0.763810 -0.723853 -0.535122 -0.482857 4.407223 1.305621 -0.069169 -0.089839 -0.153265 -0.091327 -0.141590 0.141022 -0.404167 0.181538 -0.831774 -0.325478 0.283873 -0.016594 3.814184 0.596512 0.608073 -0.638462 -0.131392 -0.162414 -0.247280 -0.233032 2.067608 0.681503 0.758634 0.815377 0.809117 -0.251957 0.349206 0.140287
-2.832895 6.521347 -0.308550 -0.790181 -0.716744 -0.780475 -1.353794 0.741611 1.875768 -0.200840 -0.207491 -0.181743 -0.198177 -0.347935 0.739583 -0.567876 0.120370 -0.550475 -0.461829 0.139518 -4.680326 -0.529138 -0.451613 -1.458357 0.625238 0.280142 0.231285 0.233325 0.945550 0.159954 0.070136 0.160658 0.072984 0.760484 0.963201 0.246530
-2.225137 -1.875796 6.136451 -0.736238 -0.718281 -0.506223 -1.029263 1.118155 -0.434570 1.230626 -0.203710 -0.213286 -0.148511 -0.241301 -0.010751 0.350412 1.422930 0.495250 -0.823536 -0.118683 -2.420050 0.302068 0.444941 0.913013 -0.465741 0.012467 -0.014248 0.084183 0.031960 0.721825 0.175737 0.153276 0.117829 1.053536 1.269100 0.344079
-1.870262 -1.062046 -2.127103 6.080866 -0.812006 -0.701801 -1.211126 0.922441 -0.288692 -0.378398 1.421768 -0.377878 -0.235404 -0.115796 0.025599 0.040120 1.157603 0.255673 -0.338679 -0.170984 -2.303266 0.302110 0.437555 0.602384 -0.006756 -0.125936 0.129742 0.102284 -0.219860 0.120939 0.661180 0.356820 0.107139 1.179921 1.352550 0.345491
-1.619098 -1.106404 -1.830950 -1.660640 5.948565 -0.989934 -1.595350 0.891495 -0.293270 -0.360351 -0.233057 1.357194 -0.298692 -0.276320 -0.104496 0.027789 0.643222 0.326240 -0.029088 -0.110461 -1.757774 0.460739 0.407697 0.394995 0.044872 -0.134204 0.320142 0.304685 -0.158162 0.170007 0.052902 0.887112 0.114842 1.162340 1.234066 0.328790
-1.490240 -1.141435 -1.344746 -1.304885 -1.176560 5.843010 -2.199287 0.972236 -0.306037 -0.225726 -0.129582 -0.222323 1.352441 -0.441318 0.027455 -0.120775 0.427938 0.198346 0.237941 0.174199 -1.843708 0.254341 0.388887 0.415073 0.082372 0.030771 0.033516 0.299135 -0.319264 0.005089 0.130000 0.087078 1.034474 1.298703 1.394530 0.366547
-4.893024 -2.180792 -0.896919 -0.933636 -1.028395 -0.509987 6.595060 1.283407 -0.193067 -0.052363 -0.104346 -0.149913 -0.050700 0.521978 -0.028411 0.387527 -1.146695 0.132662 0.731053 -0.015532 -2.418361 0.134815 0.170629 0.194270 0.041793 0.134285 -0.085352 -0.076728 -1.024360 -0.257316 -0.293829 -0.361256 -0.255580 2.003828 1.885535 0.517277
