-12.471176 -5.692040 -1.696479 -1.817239 -1.457489 -3.752098 -8.231441 9.759797 77.405000 -6.567534 -5.649389 -16.509537 -17.806745 20.776988 0.054200 -10.809178 -1.234335 -4.485505 -21.111997 7.576032 -1.331913 -0.607493 -14.648660 -14.408503 -13.440209 -4.600248 -24.090494 10.255980 -2.058410 -0.242166 -0.000000 -0.484332 -0.968664 -22.513817 3.493378 1.031423 -1.432572 -1.045018 -22.465722 -25.470556 -3.817648
-7.275616 -1.694057 -3.632279 -0.726493 -1.222787 -1.694955 -5.580666 13.458817 -4.632072 83.803890 -10.081957 -18.079816 -4.343430 -16.044875 39.010972 -17.491808 -0.335444 -12.714197 -33.207797 -18.882781 -1.452995 -0.968656 -8.244259 -9.212921 -12.108296 -1.694059 -23.016320 12.396589 -2.421657 -0.242164 -0.726498 -1.210830 -1.452995 29.358356 -38.279408 -9.625831 -7.584223 -0.306051 -20.850202 -20.926635 -2.831802
-8.968014 -1.453170 -1.227236 -4.825847 -1.452996 -0.968664 -4.613059 4.598491 -15.179658 -13.205055 84.861327 -9.892408 -21.901737 -5.714267 -11.781115 24.724471 -2.481604 -3.791580 -20.083977 -13.740329 -0.726498 -0.968666 -10.178846 -9.936680 -11.529872 -2.165403 -20.379530 8.385038 -1.936799 -0.242166 -0.484332 -0.847581 -1.106147 11.008765 12.413513 -27.897016 0.951940 -14.135952 -16.090651 -16.633788 -2.812595
-9.369305 -1.497728 -1.550564 -2.426557 -3.169168 -1.235648 -7.141953 7.717075 -12.514406 -14.497623 -12.046829 94.950644 -10.317493 -11.439813 -11.608466 7.366188 28.497371 -11.166690 -37.857218 -7.278137 -1.452996 -1.937327 -9.853637 -10.822301 -11.623965 -1.452895 -24.141428 10.868223 -2.421659 -0.968664 -0.726498 -0.968664 -1.452996 15.922728 14.540283 0.626971 -38.289851 2.957080 -17.258592 -23.439228 -3.298074
-12.652386 -2.197590 -3.678721 -3.382871 -3.148157 -5.391904 -5.833004 3.805016 -11.626137 -15.167687 -15.809018 -17.490296 108.317561 -8.371905 -4.528250 -0.714527 -9.126410 42.722595 -44.419408 -12.924313 -1.210830 -0.968664 -13.984299 -14.468631 -18.171398 -4.544363 -27.128513 9.722578 -2.104610 -0.242166 -0.726498 -0.484332 -2.172041 8.685212 0.755346 5.481957 -2.727990 -48.713181 -18.641912 -28.380779 -4.321768
-4.303725 -0.868570 -1.016029 -0.973280 -0.505441 -0.937712 -2.900265 -7.144403 -9.914028 -7.025651 -5.636601 -1.353591 -3.400319 -4.630982 4.162493 2.649746 0.036562 2.869412 20.185787 -5.669863 -0.505165 -0.484399 -5.756654 -5.998887 -4.115099 -0.870137 -10.520622 2.315645 -0.242009 -0.000000 -0.121083 -0.242166 -0.605415 4.140801 0.984516 -0.048331 2.541253 1.509346 -5.014430 -4.480776 -1.663961
-10.536450 -5.812702 -1.916790 -1.468660 -1.695079 -1.453207 -6.662334 -15.454159 -26.878947 3.044297 -3.086286 6.416555 -2.760968 38.814404 1.029495 1.291304 0.569836 3.245459 7.811190 2.774166 -1.468882 -1.227441 -11.746394 -12.231578 -5.327642 -2.667207 -18.052833 8.853725 -0.605414 -0.000000 -0.000000 -0.242166 -0.121083 4.172766 -1.715013 -0.998057 -3.382438 -1.002143 -6.424694 -9.236265 -3.111512
-7.740447 -1.624323 -3.936506 -1.971153 -0.484332 -1.210954 -4.744108 -10.229731 0.742713 -29.231838 0.899334 8.391109 -2.376749 -0.345050 48.924769 0.159047 -8.667507 -2.640104 11.345700 -9.296664 -0.968664 -1.486697 -8.271751 -8.998249 -7.960031 -2.179493 -15.570430 7.880427 -1.075881 -0.242166 -0.484332 -0.242166 -0.968664 0.921935 -0.178089 -0.144252 0.746292 1.529215 -11.804785 -1.464991 -2.349951
-6.090372 -1.306036 -2.162372 -2.960883 -1.090697 -1.564431 -3.512784 -5.815907 5.556472 10.270789 -28.387437 2.160754 0.170296 -10.638122 1.723882 43.590705 -1.337518 -6.052444 4.413219 -8.292666 -0.242166 -0.484564 -7.052919 -7.295085 -5.906778 -1.453111 -14.156396 5.575413 -1.446758 -0.000000 -0.720260 -0.000001 -0.531728 -0.359295 0.331426 -1.720885 4.914356 0.005213 -7.281670 -8.807333 -2.190491
-5.329682 -1.937048 -0.549270 -1.106046 -2.552534 -0.797013 -4.296488 -8.766643 3.806481 3.670317 1.185568 -24.708308 1.588516 -10.802016 -2.191206 -1.824128 43.252476 -1.111653 5.690783 -7.672000 -0.968663 -1.210830 -7.178641 -6.694310 -5.690975 -1.978461 -13.462563 7.029498 -0.847581 -0.000000 -0.242166 -0.595461 -0.484369 -1.127382 4.207620 3.764435 -2.373820 -1.584149 -4.511430 -6.066770 -1.934484
-5.516517 -0.731981 -1.636057 -0.965869 -2.160854 -1.344198 -3.419948 -8.622640 6.829830 6.909868 2.080343 -4.125675 -18.328692 -0.833170 -1.989207 3.291108 0.013938 40.487375 -1.988315 -9.799700 -0.484332 -0.902421 -8.399240 -8.090831 -4.125697 -3.318100 -13.595991 4.889473 -0.529169 -0.242166 -0.661850 -0.000000 -0.484332 -4.784750 -3.933861 1.997945 1.203536 0.488981 -7.822730 -3.256930 -1.970230
-3.635679 -0.484332 -0.968658 -0.722074 -0.242178 -0.121097 -2.667011 -2.770841 2.301075 -0.445374 -1.157640 -0.211785 3.050030 -11.869068 -7.250423 -6.601244 -5.993348 -6.401758 -6.307148 3.290784 -0.121083 -1.235122 -4.136519 -4.887309 -3.511407 -2.449679 -6.874518 4.397817 -0.363249 -0.121083 -0.121083 -0.121083 -0.000000 -2.914332 -0.172199 -0.832819 1.394883 0.070439 -1.450616 -4.070508 -0.829197
7.379523 37.585426 -3.859861 -5.851562 -4.954482 -3.480910 -13.058410 -2.952297 -1.829281 -1.620313 -0.654342 -0.051620 1.338023 6.725833 4.185713 1.060890 -0.706549 2.044026 -0.134763 1.562327 -8.056068 -1.951026 5.243037 1.548484 -0.456131 1.369074 -5.409413 -6.789311 -18.162930 3.308091 2.284250 2.248024 2.073972 -1.350946 3.483286 -3.281917 -2.867832 -0.168547 -1.451332 -4.624413 -0.902804
15.285039 -11.740738 44.420065 -9.479256 -4.710376 -7.499058 -10.550333 -2.154450 0.906683 0.674799 2.744900 -1.780077 -5.259060 -1.753997 3.282153 -1.175011 2.326672 1.822675 0.558307 -3.676816 2.823710 12.881520 7.580674 -5.369613 0.577810 -2.191963 2.101837 1.563267 12.060951 -13.372280 2.065410 0.973343 1.270739 0.158820 0.537359 2.453511 2.209063 -2.786383 -4.078209 -5.213048 -1.144571
15.709240 -10.061156 -16.244805 46.115289 -11.222843 -4.838741 -15.176955 -5.582601 -3.534335 -0.390568 -0.694105 1.053273 -1.578693 -1.068432 -0.918391 0.611138 -0.238974 -0.438749 -0.438172 -2.863630 2.137821 9.782736 7.262018 -0.805345 1.627571 0.808189 1.923129 -0.014173 5.138133 0.789118 -12.036889 2.725784 -0.166931 0.456344 -1.224120 0.665760 -1.055770 3.545839 -5.174911 -6.513809 -1.727132
18.732187 -8.958530 -16.194827 -16.586500 50.851877 -11.533584 -12.098962 -2.303030 2.099467 -0.991960 -1.842779 1.692932 -1.659651 -2.123459 0.359946 -1.194321 5.652281 0.843323 -1.601040 -3.314785 -1.026230 10.408170 4.717407 2.363815 1.447716 -1.227277 2.232348 3.422656 7.467587 -1.619634 -1.628751 -14.096619 3.418772 3.959191 -3.133051 -2.052161 -0.524675 3.927710 -5.531572 -5.569304 -1.340391
21.183540 -8.369770 -12.562860 -14.034298 -10.047299 47.942284 -20.899531 -4.018753 -1.587542 3.010337 -1.502727 -1.794448 1.613867 -3.640625 -2.666442 -1.740735 -3.061797 1.031335 -3.758240 -0.824663 0.719582 5.206491 -1.921912 4.258604 -2.234926 0.906332 1.162745 3.131629 6.397267 -2.463195 1.297862 -3.251680 -14.075515 1.206786 2.149395 0.299951 -1.543472 1.426891 -8.008279 -8.122957 -2.014999
17.771808 -14.825836 -10.020298 -11.707126 -10.167707 -9.621258 29.897360 -5.476897 -0.469557 -0.476866 -0.818703 0.058499 -2.722863 -1.947677 -1.472924 -0.294460 -1.361568 -0.918183 -1.047407 0.541211 0.963334 -14.129720 -3.812267 3.611277 1.129301 0.164724 0.391639 1.924413 -0.229975 3.936753 4.316643 2.901261 2.363930 -0.741985 -0.961986 -1.402177 0.656557 -0.604607 -1.916136 -5.302346 -1.269538
-90.991296 -9.686484 -19.300530 -20.339563 -18.646780 -20.107725 -54.245781 44.579152 129.780466 -3.360460 24.217781 -2.733054 -30.266891 169.735412 -4.971733 -17.053153 3.451016 -48.793015 -73.058691 -39.353503 0.760402 20.005108 -22.362118 32.562596 -6.994225 -24.701653 59.501650 -18.313685 -7.911842 -31.330452 51.668899 -55.053748 17.275667 -71.780538 -0.103303 -25.319359 -23.292659 2.254220 -100.044788 -65.046536 -12.051217
-59.545756 -3.878957 -22.994380 -9.172068 -11.448316 -11.900460 -28.846100 -4.245422 -22.952684 97.127047 -25.255772 -11.095026 -11.384671 -13.040840 41.638095 -10.632636 -7.338430 -12.445069 -30.684316 -13.168935 19.173915 21.121038 6.146787 14.502861 -10.687842 -29.314987 28.443274 5.276776 22.249052 -3.781344 0.473444 11.812291 14.857647 -11.606369 -45.527810 12.118233 -13.528549 0.836607 -29.073049 -29.139216 -6.245769
-53.731370 -3.036098 -9.693915 -19.174058 -8.645842 -11.121985 -26.948402 6.057994 -23.531099 -8.026725 86.742020 0.428138 -10.038938 -6.838429 1.003488 39.451362 -0.598881 -11.989290 -39.515401 -20.030714 10.126313 1.949110 21.615655 7.889999 7.435952 -26.842088 22.485257 8.717164 10.395077 -6.449601 2.864961 -17.416558 18.710332 2.555139 -5.364061 -43.791182 4.084585 0.321919 -41.182489 -18.308513 -5.343301
-55.175135 -4.916539 -6.536101 -11.139791 -17.350831 -11.120545 -28.902046 12.187831 -13.563171 -15.902882 -15.046387 96.141406 -3.070233 2.774077 -4.798790 -20.158693 60.106182 -20.875703 -36.370902 -17.486261 -7.600485 1.720151 7.328260 10.420422 14.866921 -23.132473 30.682682 2.785098 -1.580882 6.654089 1.664993 -11.623077 1.144393 -7.005284 10.968615 3.908760 -48.724720 3.262250 -32.480258 -35.396948 -5.568937
-53.958429 -3.750137 -11.126178 -7.140819 -8.629149 -19.249425 -34.584382 13.527914 2.607961 -14.121464 -8.260493 -11.873021 84.269617 12.431352 -2.839234 -23.649755 -18.816923 45.717032 -39.094685 -22.028035 4.892437 7.717152 23.117710 8.125883 6.842338 -23.885725 26.077188 14.683005 -0.563125 -11.726505 -8.019390 3.580651 15.374426 8.587612 -4.975281 -3.775293 -6.867283 -43.178289 -32.554453 -35.053999 -5.408054
-28.974100 -1.645660 -5.616190 -4.953049 -3.656007 -5.685211 -14.841140 -2.784156 -0.819153 -1.305008 -2.349263 -6.245696 -7.221764 -0.484706 -1.354623 -2.298332 -5.208554 2.217611 15.156729 -6.918332 -0.742205 -0.498616 11.074020 9.672636 0.404761 -16.465509 13.187267 5.539152 0.972579 -7.541896 -5.453904 -5.912172 -1.409540 7.964025 2.007392 3.643596 -2.099836 1.295797 -10.328820 -11.649743 -2.476272
-83.865912 -10.847143 -14.529062 -17.436480 -17.091206 -16.463372 -51.154619 -37.223145 -28.177188 2.566913 -17.899769 -18.385222 6.813053 139.206298 -25.825010 -21.157979 9.622282 -44.480772 17.859068 -13.470708 10.826951 35.733233 -10.701022 23.047468 -9.311209 5.578513 28.793947 -0.126905 10.019829 3.039048 9.709097 7.905015 -5.065171 14.378993 -15.034725 -7.742483 17.769420 14.819349 -40.606377 -41.372443 -11.920197
-50.423707 -3.874656 -18.224557 -11.417714 -7.765564 -8.685588 -23.258344 -30.877856 -2.330574 -27.090999 -7.042428 -3.349218 0.566775 -15.614984 52.090709 5.354670 -8.292790 -3.448061 8.368587 -2.622751 25.328919 20.903931 10.387210 6.198082 0.212996 -2.556908 19.670999 3.785758 5.545667 -14.175716 -8.862647 -4.318588 0.609184 -3.875092 -5.410162 2.341887 4.323926 -4.666524 -12.550086 -14.075704 -5.750365
-41.194887 -1.830086 -4.686595 -17.392825 -5.848868 -6.173087 -21.380876 -14.510067 1.104362 1.207238 -22.733400 -8.398019 3.988735 -8.859284 -9.788337 49.349886 -3.838436 -3.835556 10.321017 -9.852328 5.789965 13.673178 6.074097 9.622622 -5.829854 4.752244 13.904395 6.684810 6.917390 -2.825107 1.150114 -7.583745 -0.641205 -3.974386 3.872410 1.478759 1.483674 -0.377806 -14.116967 -15.062433 -4.368947
-42.224991 -1.712955 -6.786562 -8.374799 -16.627329 -9.681312 -20.419551 -15.463490 -6.661565 5.258545 -0.120903 -23.247763 0.654460 0.071923 2.734231 -1.574566 46.099373 1.397442 8.653735 -5.501511 -2.679026 4.444853 19.485071 8.080111 -2.615913 -2.289428 13.126449 11.917350 7.869707 -0.540643 -4.764829 2.782710 -0.311116 -1.166654 -7.349452 -5.239681 1.810249 -0.639231 -11.316115 -18.007787 -4.478739
-40.717124 -1.936633 -4.377785 -7.085709 -4.290500 -15.982903 -18.434216 -15.678628 -4.991743 -0.827200 -0.307470 4.088694 -21.816344 3.474317 1.268313 0.488878 -5.370373 49.093591 8.175434 -6.811815 7.228166 5.057740 4.668166 8.394175 -4.382894 2.843235 13.044573 3.308724 -2.549908 -5.802626 -3.435457 -7.893534 -4.295340 -3.327982 -0.454026 -2.390703 -6.284599 5.049153 -12.501131 -12.681437 -4.086119
-23.885961 -3.227108 -2.848196 -4.173279 -3.397143 -2.815857 -11.075239 -5.051553 0.704851 0.431118 0.329877 2.868079 -1.051345 -5.207248 -7.982708 -8.250479 -10.222091 -9.659093 -8.334132 6.239203 -3.848076 -6.182899 5.600666 10.755779 1.077014 6.755055 6.631156 6.026811 -2.259165 -3.279034 -2.635348 -1.750571 -1.733226 -2.099217 1.596202 -1.930262 -2.363700 0.317931 -6.151873 -6.686337 -1.788976
