-0.364877 -0.004475 3.500510 -0.201174 -0.152758 0.221590 -0.487746 -0.804673 5.307275 -0.254927 -0.011338 -0.013289 -0.765138 0.274259 0.269068 -0.030712 0.401486
-0.294376 -0.060856 -0.075927 2.137104 -0.635104 -0.594802 -0.310803 -0.441313 1.129929 -0.080578 -0.004825 -0.014526 0.151487 -0.179943 0.093993 -0.021854 0.037781
-0.829079 0.113741 -2.386049 -0.682606 0.461911 0.095262 -0.358639 -1.165760 4.371741 -0.394246 -0.000396 -0.018538 0.462833 0.102104 -0.364683 -0.021110 0.284734
0.466424 0.072951 2.293906 -0.148158 -0.183680 0.217865 1.125155 0.590812 0.137439 -6.386039 0.272553 -0.044052 0.311443 0.084542 0.076700 -0.191210 0.185341
0.230988 -0.069198 0.055253 1.643239 -0.006159 -0.149871 1.262419 1.016559 0.745933 0.894387 -5.364126 -0.032535 -0.027101 0.285717 -0.071143 0.931712 0.302491
0.335435 0.032387 -1.055517 -0.805788 0.093629 0.074747 0.321220 -1.818980 -1.604620 1.608990 0.700546 -0.464737 -0.006425 -0.034764 0.038896 -0.359495 -0.310238
0.417879 0.430734 1.961956 -0.143292 -0.255238 -0.407186 -1.564514 0.556508 0.357296 1.166613 0.027629 -0.053891 -3.280058 0.867287 0.794716 0.425057 -0.065071
0.448537 0.714751 -0.092855 1.592239 -0.434177 -0.708828 -2.018657 1.076766 0.841902 0.887134 0.517729 0.040554 0.478963 -3.687534 0.690700 0.189354 -0.009999
0.121989 1.617856 -0.346974 -0.472574 0.080953 -0.261660 -2.294676 4.091892 3.520819 0.181303 -0.437849 -0.501717 1.048243 0.408729 -0.528915 -0.305438 0.531804
0.542977 -0.220829 3.398517 -0.257517 -0.341558 -0.304353 -2.302952 0.963522 0.875782 1.193055 -0.051538 0.086485 0.892309 -0.122451 0.012694 0.959851 -0.046365
0.515777 -0.324929 -0.364426 2.842200 -0.403551 -0.414683 -2.466640 2.980294 2.607657 0.958252 -0.258785 -0.140519 -0.398613 1.167239 -0.004203 0.736156 0.312131
0.293810 -1.035974 -0.657409 -0.725659 0.239822 0.567979 -2.321122 6.518954 5.879040 0.657752 -0.723096 -0.814495 -0.179110 -0.123249 0.173505 -0.326760 1.007687
