-2.239819 -0.941440 -0.492506 -0.466385 -0.341038 -0.329145 -1.247282 1.512137 19.350043 -3.802891 -3.652924 -3.148987 -3.885552 -0.746342 -0.002441 0.467970 -0.078924 0.547949 -3.347551 1.512985 -0.126361 -0.178294 -2.867936 -2.987858 -1.484737 -0.474017 -4.272909 5.568674 -0.229029 -0.063180 -0.071078 -0.039488 -0.086873 -3.916984 1.420467 -0.361974 -0.962191 -0.311456 -1.881095 -2.465588 -0.283455
-2.465590 -0.546242 -0.924794 -0.446191 -0.506585 -0.390005 -1.510094 0.929321 2.350100 30.609363 -9.000626 -7.376887 -7.838781 -1.240003 0.225971 0.728081 -0.651522 0.652942 -7.813848 -0.646338 -0.189501 -0.341215 -3.153761 -3.258586 -1.848572 -0.628732 -5.576352 6.968042 -0.426458 -0.047385 -0.142156 -0.094844 -0.158025 14.436115 -8.420566 -3.109958 -1.026151 -1.759406 -2.077785 -2.111306 -0.325977
-0.603298 -0.170943 -0.146396 -0.176257 -0.143350 -0.082830 -0.311882 0.582063 -1.840840 -1.261277 0.974364 0.977768 0.636490 -0.368766 0.276178 -0.051213 -0.021854 -0.064417 1.095557 -0.047020 -0.039495 -0.048305 -0.914756 -0.907724 -0.390087 -0.056707 -1.210959 3.002711 -0.041177 -0.023694 -0.007899 -0.007900 -0.008138 0.466616 0.145649 0.024909 -0.239804 -0.186282 0.193672 -0.143482 0.063225
-1.376978 -0.864483 -0.292476 -0.205474 -0.194333 -0.212491 -0.816564 -0.668175 -5.941470 1.008795 1.150908 1.187782 0.910935 5.848164 0.095908 0.037269 0.062996 -0.393305 1.014876 0.107468 -0.062014 -0.182387 -1.748164 -1.808237 -0.755424 -0.504775 -2.653547 5.983931 -0.150054 -0.015795 -0.015795 -0.039488 -0.046011 -0.542764 -0.248147 -0.231919 0.277676 0.208223 0.502008 0.700515 0.053435
-1.482751 -0.374240 -0.632828 -0.146780 -0.155467 -0.219654 -0.968005 -0.362412 0.982106 -6.065100 1.490880 1.311038 1.170868 -0.095605 8.102727 0.354537 0.693089 0.147411 0.747796 -1.429348 -0.112441 -0.237336 -1.755525 -1.850569 -1.179378 -0.585834 -2.981261 6.279509 -0.178301 -0.055096 -0.063180 -0.011620 -0.117126 1.349579 0.032088 0.222220 0.198484 0.295378 0.190843 0.721606 0.055004
-0.370825 -0.080548 -0.100434 -0.052099 -0.065254 -0.056636 -0.241085 -0.193303 0.879587 0.714420 -0.458153 -0.466635 -0.455987 -2.100985 -1.039430 -0.005472 0.031478 -0.062854 -0.406536 0.140968 -0.015899 -0.066135 -0.806648 -0.824554 -0.268047 -0.346921 -1.031803 2.227587 -0.026970 -0.000144 -0.023974 -0.008547 -0.024372 -0.666663 0.009467 0.072811 -0.107134 0.071081 0.268752 0.428368 0.050382
1.921503 8.566178 -0.211552 -1.263177 -1.323216 -0.943056 -2.067260 0.071818 0.215133 -0.321230 0.315882 0.076193 -0.041217 0.068987 -0.049177 -0.031401 0.108930 0.011767 -0.172944 0.716349 -1.091886 -0.160575 0.318453 -0.048281 0.107583 0.048502 -0.384713 -0.853504 -3.778922 0.802742 0.413435 0.106700 0.085674 0.217763 0.301180 0.343032 0.120709 0.144222 -0.170587 -0.027978 -0.012675
3.255293 -2.997174 10.352409 -1.156915 -0.806079 -1.022096 -1.850558 0.136131 0.214513 0.061630 -0.328377 0.119461 0.117225 -0.325388 0.084518 -0.123643 -0.000642 -0.161816 -0.048321 -0.169482 0.072624 3.019879 1.842091 -1.612464 0.056930 -0.080677 0.538765 0.547081 1.534788 -2.096717 0.172090 0.106397 0.098761 0.068567 0.072477 0.048604 0.098268 0.312192 0.039256 -0.045326 0.013006
8.967081 -5.851903 -5.305636 0.705584 0.746356 0.718174 1.564310 -0.215165 -0.083574 -0.001365 -0.066724 -0.072754 -0.040020 -0.099388 -0.166331 -0.051757 0.071612 0.012785 0.049271 -0.211963 0.328483 -1.147643 -0.187528 1.182736 0.027602 0.086880 -0.043458 0.160543 0.285051 0.129894 -0.191554 -0.145391 -0.033220 -0.134345 -0.087840 -0.145742 -0.015039 -0.012900 -0.195646 -0.342619 -0.075343
-64.420274 -8.660899 -12.938559 -12.766112 -10.316674 -12.804409 -39.030954 -4.915703 90.984586 -13.097495 -17.132875 -19.180672 -18.296681 34.340130 1.481410 -8.080857 -19.322856 -0.639709 -28.192568 3.881676 3.642017 7.181021 4.738343 14.112022 5.115544 -19.139903 26.915876 21.336631 15.296106 -16.232955 6.428144 6.033417 0.098997 -53.913891 0.797395 -2.155772 -4.668496 4.299734 -27.085611 -32.252049 -6.425336
-21.266020 -0.947033 -6.140280 -4.132523 -3.541080 -3.899365 -10.758932 -0.127601 -12.327666 34.845085 -6.264712 -4.910895 -5.411841 -3.275589 2.463812 1.724573 -0.310324 0.267772 -6.057572 -0.805593 6.238814 1.315316 5.021057 6.749898 0.051999 -7.173612 11.497039 10.345325 3.828919 -0.930321 -0.213353 0.166241 -0.515116 -4.481385 -12.629518 0.750300 -1.592958 -0.221093 -6.198634 -5.081950 -1.140818
-5.037116 -0.474675 -0.782539 -0.808406 -0.896320 -0.980450 -1.986906 0.897772 -0.750494 -1.447534 0.625617 1.002982 0.705663 0.473937 0.270283 0.200393 -0.139283 -0.089598 0.761538 -0.285842 -0.091470 -0.547258 0.676468 1.578904 0.086480 -5.179486 3.661100 3.009853 -0.487514 -0.774020 -0.380468 -0.738548 -0.584325 0.497260 -0.074327 -0.178867 0.138650 -0.231841 -0.360622 -0.302696 0.023445
-43.750651 -8.126429 -7.388785 -7.388976 -7.233681 -7.391729 -23.618059 -10.397262 -26.102593 -2.152092 5.373588 5.856542 2.398525 48.561003 3.603978 -2.329334 -1.505369 -0.826576 4.228768 -0.879420 2.532248 14.654780 6.168325 12.761415 0.177993 4.622547 22.336134 18.468031 7.435777 -6.345552 -2.262585 -0.681162 4.644572 -1.149712 0.203097 1.101657 3.365673 3.606775 -6.667149 -12.481329 -2.954574
-13.210469 -0.538421 -5.453758 -2.207599 -1.926561 -2.287542 -5.334488 -0.905623 2.754184 -9.605005 1.036550 1.499396 2.282125 -2.348244 10.672070 -0.091803 0.002443 0.462623 1.127127 -0.023735 2.528018 3.464298 3.356541 2.715038 0.574329 -0.126424 9.459406 8.727133 2.396408 -1.353352 -1.168842 -0.618874 -1.795460 -0.054488 -0.023874 0.392610 0.430815 0.505705 -0.212419 -0.282570 -0.140061
-4.325293 -0.475624 -0.743107 -0.796020 -0.763981 -0.755481 -1.411415 0.144138 0.713226 1.372598 -0.298882 -0.587258 -0.422070 -0.557384 -1.610943 -0.068412 0.117220 0.061120 -0.633474 0.732174 -0.198901 -0.139830 1.111168 1.257485 -0.141967 1.372653 3.949928 3.163316 -0.127474 -0.596448 -0.694505 -0.670057 -0.371484 -0.310446 -0.034701 -0.095742 -0.179574 0.021741 0.867123 0.896929 0.190819
