-6.807467 -0.015662 2.756302 -0.175211 -0.118298 0.246391 -0.235102 0.148297 0.138354 -4.893147 1.100879 0.840093 -0.098006 -0.017694 0.070827 -0.041765 0.005155
-4.386725 0.080574 0.239322 1.749200 -0.566438 -0.377286 -0.195204 0.392622 0.217357 0.445245 -3.687917 0.436352 0.068589 0.237708 -0.072480 -0.044969 0.041478
-8.973425 0.011097 -2.059125 -0.460096 0.269196 -0.066418 -1.306121 -1.888943 -1.626329 1.873324 1.690067 -0.555609 0.145407 -0.061300 -0.140491 -0.049468 -0.482139
1.185049 0.104843 2.056962 -0.008074 -0.094960 0.184009 1.487934 1.211759 0.958651 -6.342301 0.214434 -0.069697 0.247744 0.023508 0.061745 -0.274101 0.365834
0.661929 -0.007705 -0.083958 1.521130 -0.038227 -0.227145 1.041961 1.002189 0.819404 0.911521 -5.267839 0.033470 0.002297 0.253605 -0.121499 0.859531 0.286355
1.385760 -0.039728 -0.790166 -0.448434 0.090861 -0.122948 1.676293 0.784762 1.037568 1.387435 0.534979 -0.442244 0.025823 -0.062005 0.006876 -0.406769 0.349862
0.394604 0.371549 2.045671 -0.173486 -0.250353 -0.463159 -1.569242 0.972209 0.960808 0.991902 0.141834 0.061684 -3.264272 0.837106 0.768905 0.381930 0.036378
0.412241 0.664067 -0.146568 1.615075 -0.475542 -0.776480 -2.029843 1.304491 1.506360 0.762147 0.662311 0.185201 0.423331 -3.671802 0.654427 0.266000 0.078101
0.000929 1.706108 -0.318386 -0.472128 0.091047 -0.375463 -2.539534 4.310454 4.243008 -0.175587 -0.105285 0.123442 0.889538 0.420337 -0.532298 -0.266568 0.601393
0.532726 -0.186830 3.518394 -0.252674 -0.318447 -0.324454 -2.301827 1.586091 1.734605 0.649068 0.151006 0.240279 0.941771 -0.080546 -0.002432 0.977431 0.101887
0.356316 -0.464257 -0.262896 2.972443 -0.566239 -0.525558 -2.914522 2.476128 2.556701 0.738382 0.012931 0.117469 -0.383369 1.296909 0.027459 0.713487 0.211831
-0.205119 -1.305073 -0.784534 -1.162683 0.214816 0.540096 -3.307181 6.294432 6.195305 -0.190429 -0.031065 -0.165260 -0.580918 -0.339997 0.235344 -0.256903 0.918256
