-1.092078 -0.431725 -0.227483 -0.312768 -0.145757 -0.183025 -0.617382 1.522382 11.091409 -2.088712 -2.114249 -1.692137 -1.704568 -0.395665 0.177345 0.369185 -0.087402 0.180488 -1.969360 -0.009387 -0.079041 -0.188385 -1.562774 -1.687628 -0.477399 -0.198759 -2.352064 5.399553 -0.103708 -0.031590 -0.015795 -0.031590 -0.047385 -2.440988 0.768520 -0.188246 -0.293007 0.000305 -0.019617 -0.618468 0.088430
-1.409412 -0.322458 -0.427903 -0.266656 -0.289111 -0.207755 -0.854674 0.921595 1.806671 16.208759 -5.230597 -3.648843 -4.126549 -1.067394 0.494670 -0.484738 -0.531214 0.494533 -4.087846 -0.517143 -0.130006 -0.229581 -1.787017 -1.865957 -1.122365 -0.286275 -3.050138 3.661543 -0.179951 -0.063180 -0.031590 -0.039488 -0.087261 8.576133 -4.621359 -1.703975 -1.086546 -0.644504 -1.240006 -1.597596 -0.191601
-1.321535 -0.358222 -0.228773 -0.481322 -0.289169 -0.206862 -0.591267 0.694242 -3.018450 -3.059009 16.506597 -3.643024 -3.680644 0.040199 0.573874 0.797256 -0.286505 0.145417 -2.411228 -0.688115 -0.102499 -0.175347 -1.700681 -1.724950 -0.950928 -0.246747 -2.858267 3.026833 -0.126428 -0.000352 -0.031590 -0.086913 -0.092351 3.570779 2.457075 -4.272746 0.353956 0.380508 -1.569781 -1.312138 -0.218768
-1.181663 -0.174222 -0.226279 -0.258385 -0.449063 -0.177925 -0.673580 1.018056 -2.522308 -3.069686 -2.539201 15.648976 -3.377845 -0.089036 -0.109766 0.531367 0.210988 -0.416048 -3.121881 0.106984 -0.078976 -0.181644 -1.550766 -1.558664 -0.920512 -0.289253 -2.626647 3.659536 -0.157967 -0.063134 -0.048461 -0.031933 -0.126361 1.902112 0.288394 0.628809 -3.957152 -0.121164 -0.891427 -1.215353 -0.108872
-1.115342 -0.248439 -0.116096 -0.190851 -0.163239 -0.336959 -0.640913 0.545774 -4.515118 -3.521511 -2.253714 -1.648190 15.802269 0.080784 0.317698 -0.178403 0.199830 -0.144966 -3.317962 -0.657914 -0.090718 -0.146121 -1.423422 -1.455417 -0.774860 -0.112876 -2.592859 3.358040 -0.158702 -0.031590 -0.015795 -0.047385 -0.031864 0.578495 0.293060 0.480286 0.313538 -4.258403 -0.585992 -1.017435 -0.105765
-0.427721 -0.028405 -0.033493 -0.077803 -0.103868 -0.097743 -0.328210 -0.182114 -1.075773 -0.811596 -0.010373 0.020931 -0.062122 -0.307785 0.099852 0.005598 0.198298 0.147424 1.756819 -0.134469 -0.000049 -0.049554 -0.693923 -0.726090 -0.324511 -0.057461 -1.109061 1.987292 -0.067680 -0.015812 -0.000007 -0.015821 -0.042783 0.274405 0.186024 0.228271 0.186645 0.341583 0.062352 0.173188 0.005342
-0.804697 -0.492775 -0.174694 -0.157162 -0.117476 -0.124625 -0.487228 -0.637169 -4.115759 0.827181 0.729772 0.673157 0.674310 4.016660 0.214517 -0.075714 0.148719 -0.230044 0.574170 0.203168 -0.015798 -0.063684 -1.077374 -1.101675 -0.507436 -0.372246 -1.442987 3.240031 -0.031626 -0.015795 -0.015795 -0.015795 -0.048183 -0.290513 -0.086445 0.080150 -0.117293 -0.067883 0.538174 0.130044 0.003105
-0.711455 -0.167229 -0.297031 -0.166538 -0.130133 -0.167967 -0.392310 0.215197 0.461562 -3.408294 0.841254 0.667983 0.641003 -0.128134 4.275204 -0.195640 0.332492 0.236752 1.011689 -0.594681 -0.070838 -0.071203 -0.853164 -0.868972 -0.559294 -0.272488 -1.387905 3.515186 -0.087060 -0.023699 -0.000000 -0.034145 -0.016157 0.690862 0.095648 0.091234 0.261849 0.555507 -0.134711 0.585241 0.066573
-0.631888 -0.143021 -0.093026 -0.375539 -0.056237 -0.123982 -0.353308 -0.317152 0.613403 0.567469 -3.342531 0.862381 0.471001 -0.417590 0.071144 3.926630 -0.045841 0.011366 0.511125 -0.891910 -0.055283 -0.081214 -0.825165 -0.867088 -0.481845 -0.254767 -1.358201 3.199501 -0.071640 -0.015797 -0.000000 -0.023696 -0.015807 0.086588 0.009744 -0.219233 0.177300 -0.154649 0.458232 0.444569 0.058565
-0.600272 -0.123684 -0.095751 -0.123427 -0.299937 -0.090235 -0.376850 -0.136271 0.708291 0.754763 0.435743 -3.385374 0.526809 -0.502611 -0.025133 -0.332806 3.945288 -0.320748 0.823496 -0.787245 -0.015815 -0.063570 -0.795261 -0.842830 -0.413382 -0.308018 -1.176431 2.468375 -0.047608 -0.016492 -0.015796 -0.032057 -0.047402 -0.312686 -0.145466 0.094265 0.090886 0.098355 -0.049716 0.257446 0.007146
-0.545884 -0.019263 -0.083040 -0.067302 -0.109662 -0.304334 -0.322176 -0.071874 0.699943 0.547063 0.453616 0.959853 -3.565586 -0.332967 0.172429 0.226376 -0.291378 4.242962 0.833237 -0.954540 -0.031573 -0.001794 -0.759906 -0.759994 -0.537505 -0.202182 -1.340457 2.667370 -0.110605 -0.015795 -0.015796 -0.015822 -0.015986 0.045909 -0.039397 0.060186 0.288481 0.030952 0.109513 0.286749 0.032439
-0.282387 -0.025225 -0.024744 -0.022649 -0.022235 -0.042490 -0.223481 0.218208 0.456610 0.230336 0.210230 -0.017333 0.145096 -1.585365 -0.928365 -0.896690 -0.909632 -0.963678 -0.806732 0.519797 -0.016165 -0.022005 -0.529908 -0.533858 -0.274868 -0.207937 -0.738824 1.617026 -0.019372 -0.016083 -0.015803 -0.016057 -0.022500 -0.397719 -0.092105 -0.004200 -0.003263 0.153378 0.098756 0.126519 0.044348
1.512564 7.151323 0.023350 -1.160197 -1.214934 -0.957182 -1.817349 0.038522 0.202942 -0.190662 0.356529 0.019073 -0.128787 0.156207 0.045358 -0.009314 -0.131052 0.024951 -0.220573 0.596863 -1.040524 -0.347508 0.261853 0.031202 -0.047992 0.033276 -0.497472 -0.784207 -3.043744 0.806079 0.475305 0.032767 0.229744 0.270209 0.234216 0.193850 0.161761 -0.019712 -0.263735 -0.097792 -0.032301
2.835711 -2.355077 7.894093 -0.939057 -0.840787 -1.020517 -1.568808 0.249731 0.132058 0.163904 -0.162790 0.167029 -0.009605 -0.110234 0.062495 0.007469 0.011498 -0.101522 -0.040865 -0.091859 0.148473 2.124511 1.634939 -1.195119 -0.180868 0.049989 0.508603 0.313017 1.329501 -1.678839 0.005618 0.174424 0.000893 0.133244 0.015153 0.081321 0.057492 0.221530 0.316413 0.278178 0.084432
2.925720 -1.442892 -3.075881 7.613751 -1.007934 -1.203878 -1.651227 0.118444 -0.028573 0.279265 -0.086927 -0.105418 0.031734 -0.172615 0.004803 0.016129 -0.055171 0.104466 0.028365 0.050119 0.373149 1.536306 0.905314 -0.587306 -0.300367 0.000034 0.292856 0.229675 1.006461 0.077980 -1.371051 0.237704 0.056148 0.155864 -0.000551 0.014892 -0.054171 0.144948 0.096806 -0.006816 0.020843
3.500456 -1.522852 -2.336107 -2.194408 7.803512 -1.326083 -2.083015 0.387232 -0.018480 0.101193 0.159269 -0.014829 0.144196 0.113668 -0.162057 -0.089735 0.169405 -0.119336 0.015884 0.105898 -0.094794 1.305646 0.358721 -0.063396 0.028511 0.086108 0.663749 0.599274 0.406595 -0.047104 -0.020010 -1.314208 0.306563 0.039789 -0.156291 -0.038317 0.029200 0.005169 0.397240 0.431271 0.121574
3.797917 -1.982167 -1.807334 -1.892603 -1.679135 7.724115 -2.932301 0.112294 0.019202 0.021442 -0.095776 0.058217 0.128236 -0.078753 0.142855 -0.032466 -0.121846 0.314810 -0.019028 0.020860 -0.080573 0.931827 -0.007421 0.249197 -0.060159 -0.061766 0.498844 0.505473 0.229118 0.063421 0.062663 0.042352 -1.308523 -0.019471 -0.022152 0.050120 -0.010329 -0.125004 0.141134 0.359514 0.061294
3.298874 -3.469108 -2.134857 -2.241662 -2.092378 -1.938211 6.144115 0.016630 -0.025940 0.011569 -0.033150 0.064867 -0.029102 -0.112540 -0.103592 0.045244 0.072584 -0.049870 0.028386 0.053087 -0.067706 -2.220635 -0.771686 0.905406 0.263550 0.078191 -0.120824 0.190897 -0.064194 0.320308 0.477028 0.170908 0.192440 0.008279 -0.005676 0.015677 -0.052395 -0.138040 0.113628 0.036367 0.016662
-35.546198 -4.435106 -6.649519 -6.796190 -5.553216 -7.015976 -21.861161 2.198514 51.056978 -6.534413 -8.484766 -8.652897 -10.731570 17.921018 -1.550716 -0.721984 -9.390112 -0.578435 -14.454818 1.586222 4.827928 5.176637 1.102776 7.184641 2.933803 -10.801509 19.388974 15.034382 11.115230 -7.705039 3.775071 4.625991 -1.394615 -30.986934 2.172176 0.178562 -3.785686 2.403315 -11.389535 -17.584396 -2.677542
-11.837927 -0.461775 -3.498951 -2.058311 -1.944240 -2.022558 -5.871001 -0.751156 -6.804390 19.527175 -4.323242 -2.964669 -2.770243 -1.286042 1.235476 1.710545 -0.143944 -0.198105 -3.415787 -1.297130 3.542031 1.053310 2.787257 4.210256 0.379852 -4.045210 5.460188 4.901596 1.476425 -0.780829 0.429594 -0.140734 -0.329237 -3.660051 -7.041019 -0.191548 -0.460945 -0.031481 -3.436952 -3.030654 -0.721876
-9.859485 -0.592048 -1.353691 -3.287339 -1.474317 -1.889521 -4.654768 0.994127 -3.401498 -4.744176 18.276670 -3.443852 -2.386362 -0.926171 -1.101153 0.650684 -0.408912 -0.671785 -3.306656 -0.872726 1.082791 0.689946 2.271817 2.092819 0.194954 -3.431046 5.899902 5.124681 0.662410 -0.820492 0.213677 -1.487949 -0.239382 -0.687445 -1.191977 -6.279555 0.527161 0.801688 -2.048825 -2.621434 -0.367613
-9.237466 -0.626151 -1.284208 -1.318907 -2.949056 -1.639065 -4.122639 -0.165143 -2.773564 -4.105900 -4.013304 15.704393 -2.100916 0.496759 0.490414 -0.661837 0.674990 -0.630835 -2.875852 -0.932880 0.955071 -0.052833 1.076036 2.366471 0.121927 -3.205036 4.657863 2.983242 0.849608 -1.266283 -0.100454 -0.998422 -0.319985 -1.154051 -0.592147 -0.442584 -6.688620 0.271373 -2.744768 -2.273897 -0.518381
-9.400480 -0.795742 -1.240852 -1.404681 -1.646743 -3.097669 -4.006951 0.031934 -1.951329 -3.475320 -3.312025 -3.755145 16.185131 -0.123434 -0.085877 0.346636 -0.902173 -0.247500 -3.659378 -0.229682 -0.242619 -0.825923 1.202651 3.008923 -0.100901 -3.685392 5.273902 3.560513 -0.135057 -0.929520 -0.687417 -0.784543 -0.893916 -1.712551 -0.495032 -0.479668 -0.791907 -7.145890 -2.069505 -2.244421 -0.428199
-3.975010 -0.375931 -0.625762 -0.698360 -0.598744 -0.721127 -1.631177 0.183467 0.160222 -0.470551 -0.485694 -0.247864 -0.378391 0.446158 0.161194 -0.018460 -0.078581 0.263921 1.605744 -0.417921 -0.319093 -0.715403 0.914533 1.246374 -0.003357 -3.516692 2.635559 1.853130 -0.430364 -0.786789 -0.563798 -0.635385 -0.742776 1.009436 0.086839 0.217580 0.147978 0.213078 -0.549756 -0.268170 -0.063446
-21.842062 -4.158444 -3.572274 -3.866578 -3.523342 -3.661563 -11.931286 -5.002691 -14.070158 -0.739276 3.109743 3.223508 0.768849 24.207657 2.431867 -1.839219 -1.500158 -0.443232 2.704643 -0.755682 1.900817 8.210714 2.651960 5.818701 0.361912 3.279823 13.544378 10.889271 3.334600 -2.346637 0.224529 -1.809899 1.129107 -0.661252 0.789603 -0.800703 1.639031 0.378824 -3.548971 -2.723258 -1.127492
-7.162186 -0.381954 -2.659910 -1.146723 -1.115199 -1.154800 -2.820856 -0.579524 1.487030 -5.197923 0.537969 1.016509 1.063595 -0.928548 6.191256 0.269402 -0.265570 0.121762 0.513296 0.008022 1.675175 1.792448 1.918472 1.227233 0.097052 0.084696 5.454034 4.741341 1.360420 -0.569382 -0.503000 -0.218528 -0.670570 -0.054554 0.245559 0.142583 0.200239 0.244212 0.052826 0.410106 -0.011659
-6.788875 -0.382757 -0.907079 -2.971366 -1.205471 -0.956965 -2.515765 -0.882486 0.966946 1.546861 -5.397887 0.357326 0.784077 -0.086710 -0.563483 6.109273 -0.237493 0.020601 0.860193 -0.441102 0.852329 1.342276 1.581021 1.652327 0.022709 0.017980 4.271283 3.643764 0.924488 -0.442904 -0.216182 -0.111834 0.090588 -0.485043 0.316412 0.150453 -0.070130 0.179543 -0.454405 -0.348956 -0.168585
-5.822764 -0.401188 -0.728446 -0.718717 -2.552384 -0.725329 -2.183274 -0.432427 0.492985 0.957556 0.848745 -4.487286 0.838544 0.662725 -0.337045 -0.235840 5.314619 -0.098142 0.917030 -0.795866 0.049916 0.379461 1.364259 0.959612 0.075080 0.558648 3.793235 3.178562 0.423524 -0.517317 -0.803826 -0.398700 -0.509186 -0.495468 0.008632 0.006230 0.387450 0.128582 -0.396101 0.037109 -0.079142
-5.539928 -0.350362 -0.794099 -0.716041 -0.644926 -2.506821 -1.889796 -0.104620 0.410405 1.413673 0.796153 1.000771 -4.710229 0.614419 0.020843 0.098095 -0.180082 5.619297 0.984607 -0.957382 -0.116178 0.438391 0.973099 0.896925 -0.042335 0.627066 4.670376 3.530850 0.153213 -0.544724 -0.965342 -0.632628 -0.415660 -0.048938 0.064435 0.023624 0.000317 0.089391 0.478193 0.329079 0.070265
-3.204372 -0.378581 -0.491718 -0.534404 -0.424169 -0.462158 -1.289721 0.037232 0.010418 0.371523 0.292610 0.138802 0.242458 -0.571831 -1.111200 -1.057771 -1.270717 -1.153806 -1.018578 0.696859 -0.024639 -0.529561 0.776334 1.078011 -0.117363 0.559444 2.486082 1.899482 -0.400450 -0.533782 -0.589871 -0.572243 -0.510777 -0.195705 -0.135999 -0.093793 -0.013711 -0.044985 0.325742 0.206810 0.056978
